{"learner":{"attributes":{"best_iteration":"24","best_ntree_limit":"25","scikit_learn":"{\"use_label_encoder\": null, \"n_estimators\": 25, \"objective\": \"multi:softprob\", \"max_depth\": 5, \"max_leaves\": null, \"max_bin\": null, \"grow_policy\": null, \"learning_rate\": 1.0, \"verbosity\": null, \"booster\": null, \"tree_method\": null, \"gamma\": null, \"min_child_weight\": null, \"max_delta_step\": null, \"subsample\": null, \"sampling_method\": null, \"colsample_bytree\": null, \"colsample_bylevel\": null, \"colsample_bynode\": null, \"reg_alpha\": null, \"reg_lambda\": null, \"scale_pos_weight\": null, \"base_score\": null, \"missing\": NaN, \"num_parallel_tree\": null, \"random_state\": 1919508844, \"n_jobs\": null, \"monotone_constraints\": null, \"interaction_constraints\": null, \"importance_type\": null, \"gpu_id\": null, \"validate_parameters\": null, \"predictor\": null, \"enable_categorical\": false, \"feature_types\": null, \"max_cat_to_onehot\": null, \"max_cat_threshold\": null, \"eval_metric\": null, \"early_stopping_rounds\": null, \"callbacks\": null, \"classes_\": [0, 1, 2, 3, 4], \"n_classes_\": 5, \"_estimator_type\": \"classifier\"}"},"feature_names":[],"feature_types":[],"gradient_booster":{"model":{"gbtree_model_param":{"num_parallel_tree":"1","num_trees":"125","size_leaf_vector":"0"},"tree_info":[0,1,2,3,4,0,1,2,3,4,0,1,2,3,4,0,1,2,3,4,0,1,2,3,4,0,1,2,3,4,0,1,2,3,4,0,1,2,3,4,0,1,2,3,4,0,1,2,3,4,0,1,2,3,4,0,1,2,3,4,0,1,2,3,4,0,1,2,3,4,0,1,2,3,4,0,1,2,3,4,0,1,2,3,4,0,1,2,3,4,0,1,2,3,4,0,1,2,3,4,0,1,2,3,4,0,1,2,3,4,0,1,2,3,4,0,1,2,3,4,0,1,2,3,4],"trees":[{"base_weights":[3.281207E-3,-2.4592711E-1,1.2150959E0,-4.0620223E-1,4.417974E-1,1.8679295E-2,1.7039417E0,-5.3268415E-1,-1.3650395E-1,-1.3810945E-3,8.72799E-1,7.2284085E-1,-4.7644642E-1,4.8223016E-1,1.887982E0,-3.6017773E-1,-5.989934E-1,-2.3844442E-1,9.2886686E-1,-2.7716672E-1,2.8026247E-1,-1.3345936E-1,1.2858502E0,1.0274717E-1,1.5956924E0,-5.569446E-1,7.526881E-1,1.4258161E-1,1.3289759E0,1.1161917E0,2.0342999E0,-4.598975E-1,1.8841311E-1,-6.1220205E-1,-4.7977367E-1,-4.9943563E-1,-5.2029964E-2,2.9266024E-1,1.4439362E0,-3.6102843E-1,1.8574776E-1,-1.8190737E-1,5.407965E-1,-3.9094102E-1,2.4487755E-1,8.7850463E-1,1.6460195E0,-2.2154455E-1,5.727224E-1,1.1874219E0,2.06908E0,-5.762416E-1,1.9072549E-1,1.3900044E0,-4.285714E-1,9.1919935E-1,-2.0555222E-1,2.104867E0,1.0950688E0,4.4020462E-1,1.6371025E0,1.7515308E0,2.296525E0],"categories":[],"categories_nodes":[],"categories_segments":[],"categories_sizes":[],"default_left":[1,1,1,1,1,1,1,1,1,1,1,1,1,1,1,1,1,1,1,1,1,1,1,1,1,1,1,1,1,1,1,0,0,0,0,0,0,0,0,0,0,0,0,0,0,0,0,0,0,0,0,0,0,0,0,0,0,0,0,0,0,0,0],"id":0,"left_children":[1,3,5,7,9,11,13,15,17,19,21,23,25,27,29,31,33,35,37,39,41,43,45,47,49,51,53,55,57,59,61,-1,-1,-1,-1,-1,-1,-1,-1,-1,-1,-1,-1,-1,-1,-1,-1,-1,-1,-1,-1,-1,-1,-1,-1,-1,-1,-1,-1,-1,-1,-1,-1],"loss_changes":[2.3193764E4,7.0217197E3,7.661797E3,1.7622344E3,2.2998374E3,1.3255575E3,2.0901816E3,4.0207227E2,1.7916252E3,4.6124866E2,2.537233E3,8.494033E2,2.2129575E2,3.50367E2,9.1043555E2,5.344158E2,3.9708008E1,7.324418E2,4.7167456E2,1.1654343E2,3.5386108E2,1.7323306E2,6.334883E2,1.4015427E2,1.23532104E2,3.0346497E1,1.04216064E2,2.3570018E2,6.100476E1,4.5362427E2,4.9967383E2,0E0,0E0,0E0,0E0,0E0,0E0,0E0,0E0,0E0,0E0,0E0,0E0,0E0,0E0,0E0,0E0,0E0,0E0,0E0,0E0,0E0,0E0,0E0,0E0,0E0,0E0,0E0,0E0,0E0,0E0,0E0,0E0],"parents":[2147483647,0,0,1,1,2,2,3,3,4,4,5,5,6,6,7,7,8,8,9,9,10,10,11,11,12,12,13,13,14,14,15,15,16,16,17,17,18,18,19,19,20,20,21,21,22,22,23,23,24,24,25,25,26,26,27,27,28,28,29,29,30,30],"right_children":[2,4,6,8,10,12,14,16,18,20,22,24,26,28,30,32,34,36,38,40,42,44,46,48,50,52,54,56,58,60,62,-1,-1,-1,-1,-1,-1,-1,-1,-1,-1,-1,-1,-1,-1,-1,-1,-1,-1,-1,-1,-1,-1,-1,-1,-1,-1,-1,-1,-1,-1,-1,-1],"split_conditions":[1.1032456E3,2.5569025E-1,7.0825815E-1,9.3810225E-1,3.9700824E-1,7.407344E1,5.809904E-1,5.3126726E0,2.5645408E-1,5.0233567E-1,4.55E1,3.85E1,1.02676346E2,8.55E1,5.05E1,4.25E1,8.807834E-3,4.4814736E-1,5.35E1,1.0488792E3,5.65E1,3.75E1,4.2201966E-1,3.05E1,4.2994517E-1,4.1208158E0,1.5738974E0,1.8146437E1,2.0209751E1,1.0563395E1,3.844116E-1,-4.598975E-1,1.8841311E-1,-6.1220205E-1,-4.7977367E-1,-4.9943563E-1,-5.2029964E-2,2.9266024E-1,1.4439362E0,-3.6102843E-1,1.8574776E-1,-1.8190737E-1,5.407965E-1,-3.9094102E-1,2.4487755E-1,8.7850463E-1,1.6460195E0,-2.2154455E-1,5.727224E-1,1.1874219E0,2.06908E0,-5.762416E-1,1.9072549E-1,1.3900044E0,-4.285714E-1,9.1919935E-1,-2.0555222E-1,2.104867E0,1.0950688E0,4.4020462E-1,1.6371025E0,1.7515308E0,2.296525E0],"split_indices":[1,21,9,9,24,50,10,7,42,11,52,52,47,52,52,52,15,11,52,1,52,52,24,52,24,19,8,7,7,19,24,0,0,0,0,0,0,0,0,0,0,0,0,0,0,0,0,0,0,0,0,0,0,0,0,0,0,0,0,0,0,0,0],"split_type":[0,0,0,0,0,0,0,0,0,0,0,0,0,0,0,0,0,0,0,0,0,0,0,0,0,0,0,0,0,0,0,0,0,0,0,0,0,0,0,0,0,0,0,0,0,0,0,0,0,0,0,0,0,0,0,0,0,0,0,0,0,0,0],"sum_hessian":[7.680001E4,6.3700805E4,1.3099201E4,5.1661445E4,1.2039361E4,3.8000002E3,9.2992E3,3.5167684E4,1.6493762E4,5.9363203E3,6.1030405E3,1.5686401E3,2.23136E3,1.21792E3,8.081281E3,9.7664E3,2.5401281E4,1.5054081E4,1.43968E3,2.99936E3,2.9369602E3,1.7763201E3,4.32672E3,9.177601E2,6.5088007E2,2.0947202E3,1.3664001E2,8.700801E2,3.4784003E2,1.2892802E3,6.7920005E3,8.26432E3,1.5020801E3,2.2864002E4,2.5372803E3,6.2716807E3,8.7824E3,6.4480005E2,7.9488007E2,2.5395203E3,4.5984003E2,1.0588801E3,1.8780801E3,1.0569601E3,7.1936005E2,2.0320001E3,2.2947202E3,5.4336005E2,3.7440002E2,3.5136002E2,2.9952002E2,2.0422401E3,5.2480003E1,8.864001E1,4.8000004E1,2.6880002E2,6.0128E2,7.872001E1,2.6912003E2,5.6192004E2,7.2736005E2,3.2716802E3,3.5203203E3],"tree_param":{"num_deleted":"0","num_feature":"53","num_nodes":"63","size_leaf_vector":"0"}},{"base_weights":[-1.6718531E-2,1.3209071E0,-3.8168067E-1,1.7280607E0,4.002123E-1,2.4300744E-1,-4.387618E-1,1.8937024E0,1.3604345E0,7.765912E-1,-1.9706249E-1,4.7816956E-1,-2.0575847E-1,-5.7388335E-1,-3.5088187E-1,1.953099E0,1.4816526E0,1.5501657E0,5.737515E-1,1.0913721E0,2.9760936E-1,1.9831017E-1,-3.609397E-1,6.4022475E-1,7.6129355E-2,2.7807486E-1,-4.3600798E-1,-5.9226966E-1,-1.6134575E-1,-2.7244738E-1,-5.3793794E-1,1.9875572E0,1.5235133E0,9.159347E-1,1.5876391E0,1.6054083E0,1.0478121E0,8.4865683E-1,-1.8165303E-2,1.2897393E0,4.280552E-1,6.096784E-1,-2.8211083E-2,5.584713E-1,-6.849315E-2,-1.1837519E-1,-4.3755955E-1,8.802162E-1,7.64223E-2,-4.4265592E-1,1.9568916E-1,7.492337E-2,6.182026E-1,-1.6953665E-1,-4.9851093E-1,-6.04712E-1,-3.9794585E-1,4.956268E-1,-3.473255E-1,-3.4325264E-2,-3.2441515E-1,-3.6697823E-1,-5.705332E-1],"categories":[],"categories_nodes":[],"categories_segments":[],"categories_sizes":[],"default_left":[1,1,1,1,1,1,1,1,1,1,1,1,1,1,1,1,1,1,1,1,1,1,1,1,1,1,1,1,1,1,1,0,0,0,0,0,0,0,0,0,0,0,0,0,0,0,0,0,0,0,0,0,0,0,0,0,0,0,0,0,0,0,0],"id":1,"left_children":[1,3,5,7,9,11,13,15,17,19,21,23,25,27,29,31,33,35,37,39,41,43,45,47,49,51,53,55,57,59,61,-1,-1,-1,-1,-1,-1,-1,-1,-1,-1,-1,-1,-1,-1,-1,-1,-1,-1,-1,-1,-1,-1,-1,-1,-1,-1,-1,-1,-1,-1,-1,-1],"loss_changes":[3.7493426E4,6.1707344E3,2.151666E3,6.925156E2,1.1352483E3,5.333047E2,6.563076E2,1.8963867E2,5.2885156E2,4.6671997E2,1.2659074E2,2.1596906E2,1.9373416E2,1.6515234E2,4.9138965E2,9.869922E1,5.8218994E1,7.765625E1,1.1249475E2,2.4535034E2,1.2506138E2,5.5083714E1,2.5611465E1,3.1965417E2,5.923697E1,3.8717358E1,1.9534714E1,5.0186035E1,1.1391528E2,2.9211487E2,5.4939697E1,0E0,0E0,0E0,0E0,0E0,0E0,0E0,0E0,0E0,0E0,0E0,0E0,0E0,0E0,0E0,0E0,0E0,0E0,0E0,0E0,0E0,0E0,0E0,0E0,0E0,0E0,0E0,0E0,0E0,0E0,0E0,0E0],"parents":[2147483647,0,0,1,1,2,2,3,3,4,4,5,5,6,6,7,7,8,8,9,9,10,10,11,11,12,12,13,13,14,14,15,15,16,16,17,17,18,18,19,19,20,20,21,21,22,22,23,23,24,24,25,25,26,26,27,27,28,28,29,29,30,30],"right_children":[2,4,6,8,10,12,14,16,18,20,22,24,26,28,30,32,34,36,38,40,42,44,46,48,50,52,54,56,58,60,62,-1,-1,-1,-1,-1,-1,-1,-1,-1,-1,-1,-1,-1,-1,-1,-1,-1,-1,-1,-1,-1,-1,-1,-1,-1,-1,-1,-1,-1,-1,-1,-1],"split_conditions":[6.3065903E1,4.35E1,7.581333E1,8.257509E0,1.0586556E3,1.0677008E3,6.8103886E-1,1.6399994E0,1.0816973E3,4.3069065E-1,4.1957211E-1,4.890793E0,5.15E1,9.0881405E0,6.0848875E0,1.1258928E3,5.900967E-3,4.442435E-1,4.382491E-1,5.75E1,5.35E1,5.05E1,1.2806746E-1,6.05E1,9.106399E-2,-2.284804E0,3.8670012E-1,2.54851E0,6.954132E1,4.3898267E-1,1.4635576E2,1.9875572E0,1.5235133E0,9.159347E-1,1.5876391E0,1.6054083E0,1.0478121E0,8.4865683E-1,-1.8165303E-2,1.2897393E0,4.280552E-1,6.096784E-1,-2.8211083E-2,5.584713E-1,-6.849315E-2,-1.1837519E-1,-4.3755955E-1,8.802162E-1,7.64223E-2,-4.4265592E-1,1.9568916E-1,7.492337E-2,6.182026E-1,-1.6953665E-1,-4.9851093E-1,-6.04712E-1,-3.9794585E-1,4.956268E-1,-3.473255E-1,-3.4325264E-2,-3.2441515E-1,-3.6697823E-1,-5.705332E-1],"split_indices":[3,52,3,6,1,1,9,7,1,24,24,7,52,7,8,1,23,24,24,52,52,52,43,52,25,12,24,18,4,13,50,0,0,0,0,0,0,0,0,0,0,0,0,0,0,0,0,0,0,0,0,0,0,0,0,0,0,0,0,0,0,0,0],"split_type":[0,0,0,0,0,0,0,0,0,0,0,0,0,0,0,0,0,0,0,0,0,0,0,0,0,0,0,0,0,0,0,0,0,0,0,0,0,0,0,0,0,0,0,0,0,0,0,0,0,0,0,0,0,0,0,0,0,0,0,0,0,0,0],"sum_hessian":[7.680001E4,1.6462082E4,6.0337926E4,1.1413761E4,5.0483203E3,5.0515205E3,5.5286402E4,7.8656006E3,3.5481602E3,3.0966401E3,1.9516802E3,3.3145603E3,1.7369601E3,2.178496E4,3.350144E4,6.8713604E3,9.9424005E2,2.8579202E3,6.9024005E2,1.8678401E3,1.2288E3,5.7184E2,1.3798401E3,2.3619202E3,9.526401E2,5.6000006E2,1.1769601E3,2.0855041E4,9.2992004E2,2.3605762E4,9.895681E3,6.3577603E3,5.1360004E2,1.5840001E2,8.358401E2,2.5728003E3,2.8512003E2,4.7104004E2,2.1920001E2,1.4371201E3,4.3072003E2,6.272001E2,6.0160004E2,2.4288002E2,3.2896002E2,3.3184003E2,1.0480001E3,1.6563201E3,7.0560004E2,1.7792001E2,7.7472003E2,3.5136002E2,2.0864001E2,2.2432002E2,9.526401E2,1.9598082E4,1.2569601E3,2.0480002E2,7.2512006E2,4.22912E3,1.937664E4,1.58656E3,8.30912E3],"tree_param":{"num_deleted":"0","num_feature":"53","num_nodes":"63","size_leaf_vector":"0"}},{"base_weights":[3.124959E-3,5.3406507E-1,-5.87095E-1,1.9698334E0,-3.3689308E-1,-3.1481934E-1,-6.067619E-1,2.0828848E0,2.836436E-1,3.2624593E-1,-4.4110206E-1,-5.285421E-1,-3.7270103E-2,-5.569486E-1,-6.1682457E-1,2.4672455E-1,2.1910238E0,1.3668984E0,-3.7190357E-1,-2.2523986E-1,6.358587E-1,-2.71937E-1,-5.069647E-1,-1.7969075E-1,-5.5400586E-1,-4.2387247E-1,4.387576E-1,-4.541564E-1,-5.8194554E-1,-6.2229633E-1,-6.020019E-1,-2.9528174E-1,7.4915415E-1,2.2587056E0,5.6777096E-1,2.1520016E0,4.3018502E-1,5.8359617E-1,-4.8408732E-1,-3.349498E-1,4.7613335E-1,9.2707866E-1,-3.8719825E-2,-3.4420624E-1,-6.321209E-2,-4.7613943E-1,-5.844243E-1,2.8806582E-1,-3.7892243E-1,-4.521701E-1,-5.810794E-1,-4.9085226E-2,-4.90063E-1,1.1851962E0,1.5002884E-1,-4.9190843E-1,-2.1766964E-1,-1.902497E-1,-5.8470905E-1,-5.330151E-1,-6.2248474E-1,1.12359546E-1,-6.022562E-1],"categories":[],"categories_nodes":[],"categories_segments":[],"categories_sizes":[],"default_left":[1,1,1,1,1,1,1,1,1,1,1,1,1,1,1,1,1,1,1,1,1,1,1,1,1,1,1,1,1,1,1,0,0,0,0,0,0,0,0,0,0,0,0,0,0,0,0,0,0,0,0,0,0,0,0,0,0,0,0,0,0,0,0],"id":2,"left_children":[1,3,5,7,9,11,13,15,17,19,21,23,25,27,29,31,33,35,37,39,41,43,45,47,49,51,53,55,57,59,61,-1,-1,-1,-1,-1,-1,-1,-1,-1,-1,-1,-1,-1,-1,-1,-1,-1,-1,-1,-1,-1,-1,-1,-1,-1,-1,-1,-1,-1,-1,-1,-1],"loss_changes":[2.4067559E4,5.0559902E4,1.9456543E2,2.909496E3,1.7392715E3,1.4544139E2,1.6658203E1,2.8401914E3,6.824837E2,5.8380444E2,2.4218408E2,1.2206268E1,1.9671161E2,1.4409302E1,1.9140625E0,2.172167E2,1.4830742E3,2.6550104E2,6.449882E1,9.478966E1,4.3016083E2,9.1947784E1,3.7096924E1,9.029487E0,3.2955322E0,1.4607338E1,1.03072685E2,9.906784E0,4.857422E0,1.3671875E-2,1.454834E0,0E0,0E0,0E0,0E0,0E0,0E0,0E0,0E0,0E0,0E0,0E0,0E0,0E0,0E0,0E0,0E0,0E0,0E0,0E0,0E0,0E0,0E0,0E0,0E0,0E0,0E0,0E0,0E0,0E0,0E0,0E0,0E0],"parents":[2147483647,0,0,1,1,2,2,3,3,4,4,5,5,6,6,7,7,8,8,9,9,10,10,11,11,12,12,13,13,14,14,15,15,16,16,17,17,18,18,19,19,20,20,21,21,22,22,23,23,24,24,25,25,26,26,27,27,28,28,29,29,30,30],"right_children":[2,4,6,8,10,12,14,16,18,20,22,24,26,28,30,32,34,36,38,40,42,44,46,48,50,52,54,56,58,60,62,-1,-1,-1,-1,-1,-1,-1,-1,-1,-1,-1,-1,-1,-1,-1,-1,-1,-1,-1,-1,-1,-1,-1,-1,-1,-1,-1,-1,-1,-1,-1,-1],"split_conditions":[7.0390215E0,2.9476695E0,8.68653E1,8.5882286E1,5.2050376E0,9.9842017E2,7.4068317E0,7.307803E1,1.0912404E3,7.086174E1,2.8227302E-1,7.3326943E-3,7.598574E1,5.9989866E-2,1.0467346E3,6.768208E1,6.7569837E-3,6.700303E0,8.8288994E1,4.4218273E0,6.25E1,3.7885094E-3,1.087603E3,8.19517E1,5.5058748E-2,8.5108826E1,8.369838E1,4.832259E-2,8.340491E1,7.2761457E-3,1.58384E-1,-2.9528174E-1,7.4915415E-1,2.2587056E0,5.6777096E-1,2.1520016E0,4.3018502E-1,5.8359617E-1,-4.8408732E-1,-3.349498E-1,4.7613335E-1,9.2707866E-1,-3.8719825E-2,-3.4420624E-1,-6.321209E-2,-4.7613943E-1,-5.844243E-1,2.8806582E-1,-3.7892243E-1,-4.521701E-1,-5.810794E-1,-4.9085226E-2,-4.90063E-1,1.1851962E0,1.5002884E-1,-4.9190843E-1,-2.1766964E-1,-1.902497E-1,-5.8470905E-1,-5.330151E-1,-6.2248474E-1,1.12359546E-1,-6.022562E-1],"split_indices":[7,19,47,50,19,1,29,50,1,50,25,15,49,43,1,50,15,7,3,18,52,15,1,50,16,50,50,14,50,15,10,0,0,0,0,0,0,0,0,0,0,0,0,0,0,0,0,0,0,0,0,0,0,0,0,0,0,0,0,0,0,0,0],"split_type":[0,0,0,0,0,0,0,0,0,0,0,0,0,0,0,0,0,0,0,0,0,0,0,0,0,0,0,0,0,0,0,0,0,0,0,0,0,0,0,0,0,0,0,0,0,0,0,0,0,0,0,0,0,0,0,0,0,0,0,0,0,0,0],"sum_hessian":[7.680001E4,4.0430402E4,3.63696E4,1.5264961E4,2.5165441E4,2.4512002E3,3.3918402E4,1.4305601E4,9.5936005E2,3.4172803E3,2.1748162E4,1.3843201E3,1.0668801E3,5.7097603E3,2.8208643E4,7.9584E2,1.3509761E4,3.6128003E2,5.9808E2,1.2288E3,2.1884802E3,6.0960005E3,1.5652161E4,9.472001E1,1.2896001E3,5.8880005E2,4.7808005E2,1.1206401E3,4.58912E3,2.0573121E4,7.6355205E3,3.8304004E2,4.1280002E2,1.2968641E4,5.4112006E2,1.9584001E2,1.6544002E2,6.2400005E1,5.3568005E2,1.06304E3,1.6576001E2,1.5283201E3,6.6016003E2,4.52768E3,1.5683201E3,1.1201601E4,4.4505605E3,2.8160002E1,6.6560005E1,2.7456003E2,1.0150401E3,8.864001E1,5.0016003E2,1.3248001E2,3.4560004E2,9.6544006E2,1.5520001E2,3.2640003E1,4.5564805E3,4.9280003E1,2.0523842E4,2.5600002E0,7.6329604E3],"tree_param":{"num_deleted":"0","num_feature":"53","num_nodes":"63","size_leaf_vector":"0"}},{"base_weights":[4.244736E-3,6.299632E-1,-3.8494676E-1,-5.1725554E-1,1.752747E0,-2.678605E-1,-6.029033E-1,-5.4853326E-1,2.0293865E-1,2.2808566E0,-5.5059415E-1,-4.2763618E-1,5.8082354E-1,-5.4078E-1,-6.1562914E-1,-5.604022E-1,-5.3411666E-3,-2.0367795E-1,8.522824E-1,1.051308E0,2.3569942E0,3.469952E-1,-6.049058E-1,-2.8942257E-1,-4.9912554E-1,1.1712383E0,-2.3454722E-2,-4.2807293E-1,-5.988513E-1,-6.228253E-1,-6.0168916E-1,-5.7349384E-1,-2.566909E-1,-1.1062939E-1,8.484848E-1,4.4950378E-1,-3.489889E-1,9.735187E-1,-1.9999999E-1,-2.0284113E-1,1.9315449E0,2.3674536E0,2.31303E-2,1.1456176E0,-1.09674886E-1,-4.2517385E-1,-6.1778146E-1,-5.690088E-1,-2.3173386E-1,-4.7063115E-1,-5.877621E-1,-2.2698969E-1,1.4040972E0,7.492306E-1,-2.288123E-1,-5.387917E-1,-2.1436356E-1,8.77193E-2,-5.9937143E-1,-6.2293583E-1,8.77193E-2,-5.4293627E-1,-6.064346E-1],"categories":[],"categories_nodes":[],"categories_segments":[],"categories_sizes":[],"default_left":[1,1,1,1,1,1,1,1,1,1,1,1,1,1,1,1,1,1,1,1,1,1,1,1,1,1,1,1,1,1,1,0,0,0,0,0,0,0,0,0,0,0,0,0,0,0,0,0,0,0,0,0,0,0,0,0,0,0,0,0,0,0,0],"id":3,"left_children":[1,3,5,7,9,11,13,15,17,19,21,23,25,27,29,31,33,35,37,39,41,43,45,47,49,51,53,55,57,59,61,-1,-1,-1,-1,-1,-1,-1,-1,-1,-1,-1,-1,-1,-1,-1,-1,-1,-1,-1,-1,-1,-1,-1,-1,-1,-1,-1,-1,-1,-1,-1,-1],"loss_changes":[1.8703156E4,3.7936836E4,1.208208E3,3.2827148E2,1.8107035E4,4.1773564E3,1.2748535E1,9.001172E1,1.6046332E2,1.1310547E3,1.3558752E2,2.5601416E2,1.7414456E3,1.8210327E1,1.0024414E0,5.41792E1,2.7023657E1,3.5666264E1,3.0042114E1,7.818548E2,2.7827344E2,5.8143227E1,5.7980347E0,1.4245404E2,4.2875E1,8.041482E2,3.8308395E2,2.2668777E1,7.1661377E-1,7.6293945E-1,9.818115E-1,0E0,0E0,0E0,0E0,0E0,0E0,0E0,0E0,0E0,0E0,0E0,0E0,0E0,0E0,0E0,0E0,0E0,0E0,0E0,0E0,0E0,0E0,0E0,0E0,0E0,0E0,0E0,0E0,0E0,0E0,0E0,0E0],"parents":[2147483647,0,0,1,1,2,2,3,3,4,4,5,5,6,6,7,7,8,8,9,9,10,10,11,11,12,12,13,13,14,14,15,15,16,16,17,17,18,18,19,19,20,20,21,21,22,22,23,23,24,24,25,25,26,26,27,27,28,28,29,29,30,30],"right_children":[2,4,6,8,10,12,14,16,18,20,22,24,26,28,30,32,34,36,38,40,42,44,46,48,50,52,54,56,58,60,62,-1,-1,-1,-1,-1,-1,-1,-1,-1,-1,-1,-1,-1,-1,-1,-1,-1,-1,-1,-1,-1,-1,-1,-1,-1,-1,-1,-1,-1,-1,-1,-1],"split_conditions":[1.3135223E-2,8.558531E1,1.0083777E2,8.399124E1,9.151251E0,8.4697876E1,1.02914795E-2,8.21265E-2,6.8710775E0,6.8678064E0,9.683573E0,2.6898062E-1,1.3774565E0,6.85E1,1.0292136E3,6.7569837E-3,6.4108734E0,4.5850533E-3,8.047611E-3,1.1201414E3,1.2553848E3,4.15E1,1.0627665E1,9.67568E2,1.1032017E3,9.8146985E2,2.0427175E-2,8.842345E1,2.7764495E-3,-1.6437563E0,1.3436307E2,-5.7349384E-1,-2.566909E-1,-1.1062939E-1,8.484848E-1,4.4950378E-1,-3.489889E-1,9.735187E-1,-1.9999999E-1,-2.0284113E-1,1.9315449E0,2.3674536E0,2.31303E-2,1.1456176E0,-1.09674886E-1,-4.2517385E-1,-6.1778146E-1,-5.690088E-1,-2.3173386E-1,-4.7063115E-1,-5.877621E-1,-2.2698969E-1,1.4040972E0,7.492306E-1,-2.288123E-1,-5.387917E-1,-2.1436356E-1,8.77193E-2,-5.9937143E-1,-6.2293583E-1,8.77193E-2,-5.4293627E-1,-6.064346E-1],"split_indices":[17,50,47,50,7,47,36,16,7,7,7,25,9,52,1,15,7,36,15,1,1,52,7,1,1,1,17,48,15,12,3,0,0,0,0,0,0,0,0,0,0,0,0,0,0,0,0,0,0,0,0,0,0,0,0,0,0,0,0,0,0,0,0],"split_type":[0,0,0,0,0,0,0,0,0,0,0,0,0,0,0,0,0,0,0,0,0,0,0,0,0,0,0,0,0,0,0,0,0,0,0,0,0,0,0,0,0,0,0,0,0,0,0,0,0,0,0,0,0,0,0,0,0,0,0,0,0,0,0],"sum_hessian":[7.680001E4,2.9450562E4,4.734944E4,1.4567041E4,1.4883521E4,3.0803842E4,1.6545602E4,1.3960961E4,6.0608E2,1.21075205E4,2.7760002E3,2.5923842E4,4.8800005E3,2.8204802E3,1.3725121E4,1.3662401E4,2.9856003E2,3.7312003E2,2.3296002E2,7.0688007E2,1.1400641E4,1.5808002E2,2.6179202E3,8.83936E3,1.708448E4,2.46784E3,2.4121602E3,9.6192004E2,1.8585602E3,9.02336E3,4.7017603E3,1.3096961E4,5.6544006E2,2.6656003E2,3.2000004E1,6.7520004E1,3.0560004E2,2.0896002E2,2.4000002E1,2.9184003E2,4.1504004E2,1.1349761E4,5.0880005E1,5.6960003E1,1.0112001E2,1.7728001E2,2.4406401E3,1.5104001E3,7.3289604E3,1.2933121E4,4.1513604E3,3.5232004E2,2.1155203E3,5.0592004E2,1.9062401E3,6.3264E2,3.2928003E2,1.2800001E0,1.8572802E3,9.022081E3,1.2800001E0,3.6000003E2,4.3417603E3],"tree_param":{"num_deleted":"0","num_feature":"53","num_nodes":"63","size_leaf_vector":"0"}},{"base_weights":[6.067629E-3,-4.588736E-1,1.621682E0,1.6170879E-1,-5.338421E-1,2.1911201E0,1.1030724E0,-3.3419845E-1,1.0431461E0,-5.573946E-1,-4.307162E-2,1.3056203E0,2.301491E0,1.4758471E0,9.487775E-2,-4.9754778E-1,1.9045863E-2,2.0716442E-1,1.2517003E0,-4.204974E-1,-5.7190067E-1,4.686292E-1,-1.9887882E-1,1.6669981E0,5.903457E-1,2.3691554E0,9.020771E-1,1.0869565E0,1.6900195E0,4.7769123E-1,-1.603999E-1,-5.4910094E-1,-3.236296E-1,4.451422E-1,-1.2245982E-1,8.776167E-1,-3.8212813E-2,1.668059E0,7.56568E-1,-5.3009194E-1,-2.0417875E-1,-6.081554E-1,-5.4780036E-1,-7.498027E-2,6.651047E-1,2.2198923E-1,-3.277177E-1,2.1070387E0,1.3278974E0,1.2929623E0,3.6793578E-1,2.0738802E0,2.4195018E0,1.612164E0,-3.8366675E-2,1.384298E0,3.4042424E-1,1.7887194E0,1.1239768E0,1.010936E0,2.3048684E-1,1.4035086E-1,-3.236054E-1],"categories":[],"categories_nodes":[],"categories_segments":[],"categories_sizes":[],"default_left":[1,1,1,1,1,1,1,1,1,1,1,1,1,1,1,1,1,1,1,1,1,1,1,1,1,1,1,1,1,1,1,0,0,0,0,0,0,0,0,0,0,0,0,0,0,0,0,0,0,0,0,0,0,0,0,0,0,0,0,0,0,0,0],"id":4,"left_children":[1,3,5,7,9,11,13,15,17,19,21,23,25,27,29,31,33,35,37,39,41,43,45,47,49,51,53,55,57,59,61,-1,-1,-1,-1,-1,-1,-1,-1,-1,-1,-1,-1,-1,-1,-1,-1,-1,-1,-1,-1,-1,-1,-1,-1,-1,-1,-1,-1,-1,-1,-1,-1],"loss_changes":[5.7691023E4,2.7747432E3,5.066074E3,2.8104666E3,6.150381E2,7.9641016E2,3.3764463E3,2.3744946E2,4.0334106E2,1.0058887E2,1.944509E2,2.3393677E2,6.864258E2,5.444668E2,2.3718176E2,2.5050964E1,7.856591E1,7.6269196E1,3.8064014E2,1.1531146E2,3.9777344E1,6.085663E1,1.0144373E2,8.721643E1,4.7436333E1,9.808984E1,2.2510944E2,5.17219E2,2.3419434E2,1.27754105E2,7.1529655E1,0E0,0E0,0E0,0E0,0E0,0E0,0E0,0E0,0E0,0E0,0E0,0E0,0E0,0E0,0E0,0E0,0E0,0E0,0E0,0E0,0E0,0E0,0E0,0E0,0E0,0E0,0E0,0E0,0E0,0E0,0E0,0E0],"parents":[2147483647,0,0,1,1,2,2,3,3,4,4,5,5,6,6,7,7,8,8,9,9,10,10,11,11,12,12,13,13,14,14,15,15,16,16,17,17,18,18,19,19,20,20,21,21,22,22,23,23,24,24,25,25,26,26,27,27,28,28,29,29,30,30],"right_children":[2,4,6,8,10,12,14,16,18,20,22,24,26,28,30,32,34,36,38,40,42,44,46,48,50,52,54,56,58,60,62,-1,-1,-1,-1,-1,-1,-1,-1,-1,-1,-1,-1,-1,-1,-1,-1,-1,-1,-1,-1,-1,-1,-1,-1,-1,-1,-1,-1,-1,-1,-1,-1],"split_conditions":[5.446639E-2,9.757251E2,3.6719054E-1,5.2477818E1,8.702641E-3,1.8273382E-2,1.0642456E3,2.8994816E1,6.104065E-3,9.960404E2,1.0070585E3,7.25E1,1.9596889E2,9.569597E1,1.1343501E3,2.0531269E-2,3.7351996E-2,9.4237396E2,2.642991E-1,8.132063E1,1.4217272E-3,4.4705197E-2,1.1198572E0,9.8871533E2,1.0000469E3,2.3116598E-2,1.1227839E3,7.95E1,9.95E1,6.618947E-1,8.45E1,-5.4910094E-1,-3.236296E-1,4.451422E-1,-1.2245982E-1,8.776167E-1,-3.8212813E-2,1.668059E0,7.56568E-1,-5.3009194E-1,-2.0417875E-1,-6.081554E-1,-5.4780036E-1,-7.498027E-2,6.651047E-1,2.2198923E-1,-3.277177E-1,2.1070387E0,1.3278974E0,1.2929623E0,3.6793578E-1,2.0738802E0,2.4195018E0,1.612164E0,-3.8366675E-2,1.384298E0,3.4042424E-1,1.7887194E0,1.1239768E0,1.010936E0,2.3048684E-1,1.4035086E-1,-3.236054E-1],"split_indices":[14,1,11,49,15,15,1,4,17,1,1,52,47,4,1,14,44,1,45,3,36,14,39,1,1,15,1,52,52,10,52,0,0,0,0,0,0,0,0,0,0,0,0,0,0,0,0,0,0,0,0,0,0,0,0,0,0,0,0,0,0,0,0],"split_type":[0,0,0,0,0,0,0,0,0,0,0,0,0,0,0,0,0,0,0,0,0,0,0,0,0,0,0,0,0,0,0,0,0,0,0,0,0,0,0,0,0,0,0,0,0,0,0,0,0,0,0,0,0,0,0,0,0,0,0,0,0,0,0],"sum_hessian":[7.680001E4,5.9638086E4,1.7161922E4,6.4278403E3,5.3210242E4,8.1785605E3,8.98336E3,4.1139204E3,2.3139202E3,5.0773445E4,2.4368003E3,9.078401E2,7.2707207E3,6.5580806E3,2.4252803E3,2.8128003E3,1.3011201E3,4.6240002E2,1.8515201E3,4.8675205E3,4.590592E4,5.6832007E2,1.8684801E3,6.0224005E2,3.0560004E2,6.9347207E3,3.3600003E2,2.3312002E3,4.2268804E3,9.6992004E2,1.4553601E3,2.1680002E3,6.4480005E2,3.2384003E2,9.772801E2,1.2320001E2,3.392E2,1.00448004E3,8.4704004E2,3.2297603E3,1.6377601E3,1.832096E4,2.7584963E4,1.5104001E2,4.1728003E2,4.3776004E2,1.4307201E3,2.5984003E2,3.4240002E2,7.232001E1,2.3328001E2,1.01632007E3,5.9184004E3,1.9104001E2,1.4496E2,1.66656E3,6.646401E2,3.5974402E3,6.2944006E2,3.0624002E2,6.6368005E2,5.1200006E2,9.4336005E2],"tree_param":{"num_deleted":"0","num_feature":"53","num_nodes":"63","size_leaf_vector":"0"}},{"base_weights":[5.6421153E-2,-1.0001694E-1,3.8179463E-1,-3.3050677E-1,1.3443923E-1,2.0723143E-1,5.597462E-1,-3.6364737E-1,1.0063093E-1,2.68771E-1,-1.2342811E-1,-1.120471E-3,3.734771E-1,4.2385468E-1,6.720229E-1,7.2153217E-1,-3.7824494E-1,-1.3297342E-1,2.8686216E-1,9.847998E-2,4.6349692E-1,1.137963E0,-1.620686E-1,1.4876813E-1,-2.9622898E-1,5.040427E-1,1.5016389E-1,2.4151406E-1,5.5526966E-1,7.7984715E-1,5.002742E-1,9.5148104E-1,9.300529E-3,-4.359951E-1,-2.1939987E-1,-4.3350562E-1,1.1415516E-1,4.7697794E-1,-3.426724E-2,5.3771216E-1,-6.4129725E-2,3.8738582E-1,6.533207E-1,1.6899767E0,6.789624E-1,-3.0257422E-1,7.2200075E-2,6.165873E-2,5.52582E-1,-3.614631E-1,2.7954042E-1,3.575896E-1,6.2601185E-1,-2.1515904E-1,4.0525758E-1,7.5436467E-1,1.578327E-1,6.9682026E-1,4.6558872E-1,1.0080477E0,5.638773E-1,2.800885E-1,6.006358E-1],"categories":[],"categories_nodes":[],"categories_segments":[],"categories_sizes":[],"default_left":[1,1,1,1,1,1,1,1,1,1,1,1,1,1,1,1,1,1,1,1,1,1,1,1,1,1,1,1,1,1,1,0,0,0,0,0,0,0,0,0,0,0,0,0,0,0,0,0,0,0,0,0,0,0,0,0,0,0,0,0,0,0,0],"id":5,"left_children":[1,3,5,7,9,11,13,15,17,19,21,23,25,27,29,31,33,35,37,39,41,43,45,47,49,51,53,55,57,59,61,-1,-1,-1,-1,-1,-1,-1,-1,-1,-1,-1,-1,-1,-1,-1,-1,-1,-1,-1,-1,-1,-1,-1,-1,-1,-1,-1,-1,-1,-1,-1,-1],"loss_changes":[2.5136704E3,1.8022561E3,4.9796802E2,2.403263E2,5.7274396E2,2.8041827E2,1.20851074E2,2.476643E2,5.2296722E1,3.604317E2,2.7622797E2,1.5901361E2,1.3121484E2,8.600293E1,8.008789E1,3.3996788E1,1.4127026E2,3.9674362E1,4.084168E1,4.1432877E2,7.301538E1,4.153592E1,1.809299E2,8.3826096E1,4.558084E1,5.052594E1,1.5504503E2,6.457208E1,2.6185303E1,1.3091895E2,3.6931213E1,0E0,0E0,0E0,0E0,0E0,0E0,0E0,0E0,0E0,0E0,0E0,0E0,0E0,0E0,0E0,0E0,0E0,0E0,0E0,0E0,0E0,0E0,0E0,0E0,0E0,0E0,0E0,0E0,0E0,0E0,0E0,0E0],"parents":[2147483647,0,0,1,1,2,2,3,3,4,4,5,5,6,6,7,7,8,8,9,9,10,10,11,11,12,12,13,13,14,14,15,15,16,16,17,17,18,18,19,19,20,20,21,21,22,22,23,23,24,24,25,25,26,26,27,27,28,28,29,29,30,30],"right_children":[2,4,6,8,10,12,14,16,18,20,22,24,26,28,30,32,34,36,38,40,42,44,46,48,50,52,54,56,58,60,62,-1,-1,-1,-1,-1,-1,-1,-1,-1,-1,-1,-1,-1,-1,-1,-1,-1,-1,-1,-1,-1,-1,-1,-1,-1,-1,-1,-1,-1,-1,-1,-1],"split_conditions":[6.65E1,4.6727214E0,7.330828E-1,1.1810537E3,-2.4725003E0,1.0327461E3,7.85E1,8.0665546E2,9.454755E1,1.0439165E3,8.783369E2,1.5977124E2,1.6307407E2,1.029571E3,5.1047124E-2,7.494941E1,9.593717E1,1.8902684E0,2.5413666E-2,9.674218E2,5.5025864E0,8.0176746E2,1.0591234E3,9.25E1,1.8476657E2,7.85E1,1.8104544E2,8.90157E2,1.1030352E3,1.1031436E3,4.778592E-1,9.5148104E-1,9.300529E-3,-4.359951E-1,-2.1939987E-1,-4.3350562E-1,1.1415516E-1,4.7697794E-1,-3.426724E-2,5.3771216E-1,-6.4129725E-2,3.8738582E-1,6.533207E-1,1.6899767E0,6.789624E-1,-3.0257422E-1,7.2200075E-2,6.165873E-2,5.52582E-1,-3.614631E-1,2.7954042E-1,3.575896E-1,6.2601185E-1,-2.1515904E-1,4.0525758E-1,7.5436467E-1,1.578327E-1,6.9682026E-1,4.6558872E-1,1.0080477E0,5.638773E-1,2.800885E-1,6.006358E-1],"split_indices":[52,19,32,1,12,1,52,1,47,1,1,47,50,1,23,4,47,19,23,1,18,1,1,52,51,52,3,1,1,1,13,0,0,0,0,0,0,0,0,0,0,0,0,0,0,0,0,0,0,0,0,0,0,0,0,0,0,0,0,0,0,0,0],"split_type":[0,0,0,0,0,0,0,0,0,0,0,0,0,0,0,0,0,0,0,0,0,0,0,0,0,0,0,0,0,0,0,0,0,0,0,0,0,0,0,0,0,0,0,0,0,0,0,0,0,0,0,0,0,0,0,0,0,0,0,0,0,0,0],"sum_hessian":[4.9381957E4,3.334873E4,1.6033227E4,1.6816404E4,1.6532328E4,8.0947627E3,7.938464E3,1.561618E4,1.2002242E3,1.0869827E4,5.662501E3,3.5928806E3,4.501882E3,3.5936929E3,4.344771E3,2.0663399E2,1.5409546E4,5.325239E2,6.6770026E2,5.7995396E3,5.0702876E3,1.6745944E2,5.4950415E3,2.3830176E3,1.2098629E3,2.840094E3,1.6617882E3,1.5063888E3,2.087304E3,2.6669272E3,1.6778439E3,1.559489E2,5.0685093E1,1.1299663E4,4.109883E3,2.3995786E2,2.9256607E2,4.19099E2,2.4860127E2,1.5663356E3,4.233204E3,3.621332E3,1.4489556E3,7.480906E1,9.2650375E1,3.4347283E3,2.0603132E3,1.9611233E3,4.2189432E2,1.0870709E3,1.2279193E2,1.2923049E3,1.547789E3,6.8333374E2,9.7845447E2,2.1019153E2,1.2961973E3,8.069149E2,1.2803892E3,1.294962E3,1.3719652E3,5.26511E2,1.1513329E3],"tree_param":{"num_deleted":"0","num_feature":"53","num_nodes":"63","size_leaf_vector":"0"}},{"base_weights":[3.4936856E-2,1.8119848E-1,-1.4652458E-1,2.6000053E-1,1.01856366E-1,-3.0348596E-1,2.6941756E-2,2.813708E-1,-1.0642841E-2,-1.5902877E-2,2.1382351E-1,-4.6628058E-1,-1.5674318E-1,4.5948595E-1,-1.15937695E-1,-1.877295E-2,2.9853696E-1,7.52486E-2,-2.4490742E-1,6.382075E-2,-1.7751181E-1,-6.9208145E-2,2.4197276E-1,1.2958823E0,-4.686188E-1,2.4621693E-2,-2.2318555E-1,1.0151076E-1,6.331929E-1,3.847114E-2,-3.2863954E-1,3.419132E-1,-7.030036E-2,5.12754E-1,2.7552047E-1,1.2735197E-1,-3.9664543E-1,-3.097131E-1,3.6415198E-1,-1.2805083E-1,1.2390289E-1,-1.09968595E-1,-3.382033E-1,2.8149727E-1,-1.5371306E-1,2.1845853E-1,4.1946444E-1,1.1037926E-1,2.0437138E0,-5.0239396E-1,-3.958966E-1,4.8365104E-1,-5.4316655E-2,-3.4309024E-1,-1.3914187E-1,2.1281673E-2,1.056668E0,8.5282564E-1,1.686569E-1,-2.2482267E-1,1.1274463E-1,-1.012055E-1,-4.012289E-1],"categories":[],"categories_nodes":[],"categories_segments":[],"categories_sizes":[],"default_left":[1,1,1,1,1,1,1,1,1,1,1,1,1,1,1,1,1,1,1,1,1,1,1,1,1,1,1,1,1,1,1,0,0,0,0,0,0,0,0,0,0,0,0,0,0,0,0,0,0,0,0,0,0,0,0,0,0,0,0,0,0,0,0],"id":6,"left_children":[1,3,5,7,9,11,13,15,17,19,21,23,25,27,29,31,33,35,37,39,41,43,45,47,49,51,53,55,57,59,61,-1,-1,-1,-1,-1,-1,-1,-1,-1,-1,-1,-1,-1,-1,-1,-1,-1,-1,-1,-1,-1,-1,-1,-1,-1,-1,-1,-1,-1,-1,-1,-1],"loss_changes":[1.2839438E3,1.6744788E2,5.8785583E2,7.772504E1,1.7601053E2,2.7069373E2,6.339409E2,6.4175964E1,1.9825739E1,8.3848946E1,5.453412E1,2.2745117E1,7.185666E1,1.5831519E2,2.5325899E2,1.2563982E1,5.7944946E1,1.7779552E1,1.054595E1,5.0257675E1,2.3296616E1,1.8411047E1,2.5884766E1,6.3219843E0,1.2982178E1,5.7987762E1,4.3929276E1,6.383643E1,1.747995E2,8.741008E1,5.350421E1,0E0,0E0,0E0,0E0,0E0,0E0,0E0,0E0,0E0,0E0,0E0,0E0,0E0,0E0,0E0,0E0,0E0,0E0,0E0,0E0,0E0,0E0,0E0,0E0,0E0,0E0,0E0,0E0,0E0,0E0,0E0,0E0],"parents":[2147483647,0,0,1,1,2,2,3,3,4,4,5,5,6,6,7,7,8,8,9,9,10,10,11,11,12,12,13,13,14,14,15,15,16,16,17,17,18,18,19,19,20,20,21,21,22,22,23,23,24,24,25,25,26,26,27,27,28,28,29,29,30,30],"right_children":[2,4,6,8,10,12,14,16,18,20,22,24,26,28,30,32,34,36,38,40,42,44,46,48,50,52,54,56,58,60,62,-1,-1,-1,-1,-1,-1,-1,-1,-1,-1,-1,-1,-1,-1,-1,-1,-1,-1,-1,-1,-1,-1,-1,-1,-1,-1,-1,-1,-1,-1,-1,-1],"split_conditions":[7.691446E1,7.56946E-2,8.452212E-3,1.185048E3,-2.4444842E0,8.414328E-3,1.567223E-2,9.0853986E2,8.508495E-1,1.0349932E3,1.546058E-1,7.52823E1,4.1686565E1,4.8947252E-2,1.5478546E2,6.443221E-4,-1.1403619E0,4.4700855E-1,-2.4088025E0,9.3154224E2,4.380011E-1,9.863469E2,4.35E1,3.95E1,5.301784E-3,9.9657666E2,5.35E1,6.913316E-2,1.0565286E3,1.0944331E0,1.4633584E-1,3.419132E-1,-7.030036E-2,5.12754E-1,2.7552047E-1,1.2735197E-1,-3.9664543E-1,-3.097131E-1,3.6415198E-1,-1.2805083E-1,1.2390289E-1,-1.09968595E-1,-3.382033E-1,2.8149727E-1,-1.5371306E-1,2.1845853E-1,4.1946444E-1,1.1037926E-1,2.0437138E0,-5.0239396E-1,-3.958966E-1,4.8365104E-1,-5.4316655E-2,-3.4309024E-1,-1.3914187E-1,2.1281673E-2,1.056668E0,8.5282564E-1,1.686569E-1,-2.2482267E-1,1.1274463E-1,-1.012055E-1,-4.012289E-1],"split_indices":[47,16,15,1,12,17,17,1,9,1,25,50,4,37,3,15,2,24,12,1,24,1,52,52,17,1,52,16,1,39,25,0,0,0,0,0,0,0,0,0,0,0,0,0,0,0,0,0,0,0,0,0,0,0,0,0,0,0,0,0,0,0,0],"split_type":[0,0,0,0,0,0,0,0,0,0,0,0,0,0,0,0,0,0,0,0,0,0,0,0,0,0,0,0,0,0,0,0,0,0,0,0,0,0,0,0,0,0,0,0,0,0,0,0,0,0,0,0,0,0,0,0,0,0,0,0,0,0,0],"sum_hessian":[4.837415E4,2.678494E4,2.1589209E4,1.3437064E4,1.3347875E4,1.1333404E4,1.0255804E4,1.2453671E4,9.8339404E2,6.506086E3,6.8417896E3,5.371808E3,5.961596E3,2.5459973E3,7.7098066E3,6.7372656E2,1.1779944E4,7.2006586E2,2.6332822E2,4.357221E3,2.1488645E3,6.187722E2,6.223017E3,6.3853917E0,5.365423E3,1.5985989E3,4.362997E3,8.323256E2,1.7136716E3,4.4674927E3,3.242314E3,8.351254E1,5.9021405E2,1.1408302E3,1.0639114E4,6.491241E2,7.0941795E1,2.3844815E2,2.4880075E1,1.0387749E3,3.3184465E3,1.5141207E3,6.347437E2,1.1969455E2,4.990777E2,5.4970015E3,7.2601575E2,2.9138298E0,3.471562E0,3.659768E3,1.7056548E3,2.3381708E2,1.3647817E3,1.7966473E3,2.5663499E3,7.687742E2,6.355143E1,1.162979E3,5.506926E2,9.825174E2,3.4849756E3,7.85043E2,2.4572708E3],"tree_param":{"num_deleted":"0","num_feature":"53","num_nodes":"63","size_leaf_vector":"0"}},{"base_weights":[-5.0241064E-2,1.3379467E-1,-4.7446275E-1,4.3750316E-1,-8.244116E-2,-3.625253E-1,-5.133143E-1,4.776562E-1,1.9644912E-1,-4.1655964E-1,-1.2190532E-2,-1.2371876E-1,-4.3804064E-1,-5.2688825E-1,-4.861632E-1,2.8305438E-1,5.1570785E-1,3.5756972E-1,-6.025173E-2,-5.3560084E-1,-2.8389668E-1,1.0386141E-1,-2.5655603E-1,-3.5129675E-1,1.6854005E-2,-4.8840508E-1,-3.5245442E-1,-3.974911E-3,-5.275101E-1,-3.5275698E-1,-4.9881142E-1,3.1592998E-1,-2.7787915E-1,9.068257E-2,5.28697E-1,4.1411752E-1,-4.0940714E-1,-1.2960673E-2,-7.3462594E-1,-4.543058E-1,-5.7504493E-1,-1.4512497E-1,-4.0336272E-1,1.6910934E-1,-2.6105708E-1,-1.2808616E-1,-3.8846502E-1,1.0662636E0,-3.6303475E-1,-4.2812657E-1,1.19316466E-1,2.3481204E-1,-4.9130556E-1,-9.145984E-2,-3.9865106E-1,7.97138E-1,-4.4447377E-1,-2.701159E-1,-5.27933E-1,6.1967745E-3,-4.1486725E-1,-4.5001987E-1,-5.0994325E-1],"categories":[],"categories_nodes":[],"categories_segments":[],"categories_sizes":[],"default_left":[1,1,1,1,1,1,1,1,1,1,1,1,1,1,1,1,1,1,1,1,1,1,1,1,1,1,1,1,1,1,1,0,0,0,0,0,0,0,0,0,0,0,0,0,0,0,0,0,0,0,0,0,0,0,0,0,0,0,0,0,0,0,0],"id":7,"left_children":[1,3,5,7,9,11,13,15,17,19,21,23,25,27,29,31,33,35,37,39,41,43,45,47,49,51,53,55,57,59,61,-1,-1,-1,-1,-1,-1,-1,-1,-1,-1,-1,-1,-1,-1,-1,-1,-1,-1,-1,-1,-1,-1,-1,-1,-1,-1,-1,-1,-1,-1,-1,-1],"loss_changes":[3.3590498E3,1.9707092E3,5.6427246E1,1.2069824E2,4.1143024E2,6.0493225E1,3.3044434E0,7.906543E1,7.379338E1,4.7939148E1,4.1079468E2,2.5855652E1,1.0821655E1,2.088745E0,5.27948E0,3.239244E1,4.9342285E1,4.7703506E1,2.195353E1,4.881775E0,2.385328E1,2.3389157E2,7.8991425E1,5.5216255E0,2.286836E1,3.4779663E0,1.1398956E1,3.40475E0,5.562744E-1,6.3208885E0,1.3731079E0,0E0,0E0,0E0,0E0,0E0,0E0,0E0,0E0,0E0,0E0,0E0,0E0,0E0,0E0,0E0,0E0,0E0,0E0,0E0,0E0,0E0,0E0,0E0,0E0,0E0,0E0,0E0,0E0,0E0,0E0,0E0,0E0],"parents":[2147483647,0,0,1,1,2,2,3,3,4,4,5,5,6,6,7,7,8,8,9,9,10,10,11,11,12,12,13,13,14,14,15,15,16,16,17,17,18,18,19,19,20,20,21,21,22,22,23,23,24,24,25,25,26,26,27,27,28,28,29,29,30,30],"right_children":[2,4,6,8,10,12,14,16,18,20,22,24,26,28,30,32,34,36,38,40,42,44,46,48,50,52,54,56,58,60,62,-1,-1,-1,-1,-1,-1,-1,-1,-1,-1,-1,-1,-1,-1,-1,-1,-1,-1,-1,-1,-1,-1,-1,-1,-1,-1,-1,-1,-1,-1,-1,-1],"split_conditions":[7.2615213E0,1.8470016E0,7.4068003E0,6.6003437E0,9.851135E2,7.884759E-2,1.0401993E3,7.66537E1,4.8284894E-1,9.528419E2,3.0227253E-1,1.00583655E3,7.488196E1,7.2761597E-3,1.9162257E-1,3.5921118E0,9.8197327E2,1.1146873E3,3.0202124E0,3.95E1,4.15E1,8.253854E1,1.0445159E3,-1.6897223E0,5.510645E0,5.9841795E0,8.304263E1,8.863056E1,8.185186E1,1.5657268E2,4.4033834E-1,3.1592998E-1,-2.7787915E-1,9.068257E-2,5.28697E-1,4.1411752E-1,-4.0940714E-1,-1.2960673E-2,-7.3462594E-1,-4.543058E-1,-5.7504493E-1,-1.4512497E-1,-4.0336272E-1,1.6910934E-1,-2.6105708E-1,-1.2808616E-1,-3.8846502E-1,1.0662636E0,-3.6303475E-1,-4.2812657E-1,1.19316466E-1,2.3481204E-1,-4.9130556E-1,-9.145984E-2,-3.9865106E-1,7.97138E-1,-4.4447377E-1,-2.701159E-1,-5.27933E-1,6.1967745E-3,-4.1486725E-1,-4.5001987E-1,-5.0994325E-1],"split_indices":[7,19,29,7,1,46,1,48,40,1,25,1,48,15,33,18,1,1,18,52,52,50,1,2,29,49,47,47,3,50,34,0,0,0,0,0,0,0,0,0,0,0,0,0,0,0,0,0,0,0,0,0,0,0,0,0,0,0,0,0,0,0,0],"split_type":[0,0,0,0,0,0,0,0,0,0,0,0,0,0,0,0,0,0,0,0,0,0,0,0,0,0,0,0,0,0,0,0,0,0,0,0,0,0,0,0,0,0,0,0,0,0,0,0,0,0,0,0,0,0,0,0,0,0,0,0,0,0,0],"sum_hessian":[4.3023242E4,3.0006512E4,1.3016731E4,1.2478763E4,1.7527748E4,3.3564885E3,9.660243E3,1.0696102E4,1.782661E3,3.0442214E3,1.4483527E4,8.0702466E2,2.5494639E3,6.4281406E3,3.232103E3,1.7507826E3,8.945319E3,1.0949886E3,6.876724E2,1.6028837E3,1.4413378E3,9.82032E3,4.6632065E3,3.0757773E2,4.9944696E2,1.6020234E3,9.474403E2,7.6441936E0,6.420496E3,2.8239972E2,2.9497034E3,1.654265E3,9.651754E1,2.655069E2,8.6798125E3,1.02022906E3,7.475954E1,6.4356134E2,4.4111065E1,5.2773346E2,1.0751503E3,6.6781683E2,7.735209E2,8.331223E3,1.4890979E3,2.363398E3,2.2998086E3,1.788172E0,3.0578955E2,9.288436E1,4.065626E2,6.0798755E0,1.5959436E3,1.42928E2,8.045123E2,2.4247673E0,5.219426E0,1.1580576E1,6.4089155E3,4.1788967E1,2.4061073E2,5.556552E2,2.394048E3],"tree_param":{"num_deleted":"0","num_feature":"53","num_nodes":"63","size_leaf_vector":"0"}},{"base_weights":[-2.578624E-2,8.611477E-2,-4.7751114E-1,-2.3707877E-1,3.9642528E-1,-3.6960062E-1,-5.167192E-1,-5.7075478E-2,-3.114034E-1,4.533111E-1,-1.6173682E-1,-5.1340425E-1,-1.4409687E-1,-4.9021628E-1,-5.313997E-1,1.2477512E-1,-1.9080335E-1,-1.2487543E-1,-3.4088862E-1,1.9497932E-1,5.1591647E-1,4.0077826E-1,-3.6279657E-1,-5.751874E-1,-4.1889974E-1,1.4895438E-1,-4.052679E-1,-6.3442655E-2,-4.9385044E-1,2.829637E-2,-5.3185403E-1,-4.182236E-1,1.6046852E-1,-4.674975E-1,-1.4596778E-1,1.3620237E-1,-2.2067402E-1,-4.379951E-1,-3.050626E-1,2.770713E-1,-1.7088085E-1,-2.3585504E-1,5.2859944E-1,5.116928E-1,-1.6110995E-1,-2.311373E-2,-5.150961E-1,-8.2604754E-1,-5.5772495E-1,2.618251E-1,-4.3297696E-1,5.4852045E-1,-1.829649E-1,-2.2911806E-1,-4.9800578E-1,-5.381186E-1,2.8028813E-1,-4.9668705E-1,3.8260132E-2,6.4761263E-1,-3.7882185E-1,-5.321049E-1,1.9121347E-1],"categories":[],"categories_nodes":[],"categories_segments":[],"categories_sizes":[],"default_left":[1,1,1,1,1,1,1,1,1,1,1,1,1,1,1,1,1,1,1,1,1,1,1,1,1,1,1,1,1,1,1,0,0,0,0,0,0,0,0,0,0,0,0,0,0,0,0,0,0,0,0,0,0,0,0,0,0,0,0,0,0,0,0],"id":8,"left_children":[1,3,5,7,9,11,13,15,17,19,21,23,25,27,29,31,33,35,37,39,41,43,45,47,49,51,53,55,57,59,61,-1,-1,-1,-1,-1,-1,-1,-1,-1,-1,-1,-1,-1,-1,-1,-1,-1,-1,-1,-1,-1,-1,-1,-1,-1,-1,-1,-1,-1,-1,-1,-1],"loss_changes":[2.1508274E3,3.4202207E3,3.5551025E1,2.2347308E2,5.5249414E2,7.304816E1,2.149414E0,1.1877301E2,6.498132E1,2.5525977E2,1.8222398E2,7.7959595E0,6.7367714E1,3.413025E0,1.0253906E0,4.0183525E1,3.484458E1,4.043203E1,3.5381226E1,9.26021E1,1.21298096E2,2.6530754E1,6.137085E1,3.1736755E0,5.3629913E0,5.5158516E1,7.4864273E0,3.3975236E0,3.3424683E0,1.2973285E0,8.2214355E-1,0E0,0E0,0E0,0E0,0E0,0E0,0E0,0E0,0E0,0E0,0E0,0E0,0E0,0E0,0E0,0E0,0E0,0E0,0E0,0E0,0E0,0E0,0E0,0E0,0E0,0E0,0E0,0E0,0E0,0E0,0E0,0E0],"parents":[2147483647,0,0,1,1,2,2,3,3,4,4,5,5,6,6,7,7,8,8,9,9,10,10,11,11,12,12,13,13,14,14,15,15,16,16,17,17,18,18,19,19,20,20,21,21,22,22,23,23,24,24,25,25,26,26,27,27,28,28,29,29,30,30],"right_children":[2,4,6,8,10,12,14,16,18,20,22,24,26,28,30,32,34,36,38,40,42,44,46,48,50,52,54,56,58,60,62,-1,-1,-1,-1,-1,-1,-1,-1,-1,-1,-1,-1,-1,-1,-1,-1,-1,-1,-1,-1,-1,-1,-1,-1,-1,-1,-1,-1,-1,-1,-1,-1],"split_conditions":[9.029816E-3,8.322049E1,9.967679E-3,2.672327E0,9.591324E1,8.586313E1,3.742364E-1,1.7417237E-1,3.41409E1,7.2418623E0,6.5340614E-1,1.00224316E3,5.85E1,4.9889736E-2,2.15E1,9.4683984E2,9.675797E2,2.9527217E-1,1.3737634E0,6.35E1,9.58193E2,1.1264678E3,1.064104E3,1.3231339E-2,9.495242E1,8.865404E-3,8.695789E0,4.6714887E-2,2.7516696E2,-1.9843299E0,3.4503204E2,-4.182236E-1,1.6046852E-1,-4.674975E-1,-1.4596778E-1,1.3620237E-1,-2.2067402E-1,-4.379951E-1,-3.050626E-1,2.770713E-1,-1.7088085E-1,-2.3585504E-1,5.2859944E-1,5.116928E-1,-1.6110995E-1,-2.311373E-2,-5.150961E-1,-8.2604754E-1,-5.5772495E-1,2.618251E-1,-4.3297696E-1,5.4852045E-1,-1.829649E-1,-2.2911806E-1,-4.9800578E-1,-5.381186E-1,2.8028813E-1,-4.9668705E-1,3.8260132E-2,6.4761263E-1,-3.7882185E-1,-5.321049E-1,1.9121347E-1],"split_indices":[15,50,36,27,50,49,33,21,47,7,9,1,52,35,52,1,1,25,19,52,1,1,1,17,50,36,29,35,48,12,49,0,0,0,0,0,0,0,0,0,0,0,0,0,0,0,0,0,0,0,0,0,0,0,0,0,0,0,0,0,0,0,0],"split_type":[0,0,0,0,0,0,0,0,0,0,0,0,0,0,0,0,0,0,0,0,0,0,0,0,0,0,0,0,0,0,0,0,0,0,0,0,0,0,0,0,0,0,0,0,0,0,0,0,0,0,0,0,0,0,0,0,0,0,0,0,0,0,0],"sum_hessian":[4.2547984E4,3.4101254E4,8.446731E3,1.6703998E4,1.7397256E4,2.2538882E3,6.1928438E3,4.882082E3,1.1821916E4,1.5788353E4,1.6089025E3,1.375473E3,8.7841516E2,2.2198025E3,3.973041E3,2.0688337E3,2.8132483E3,1.6143755E3,1.0207541E4,3.0806462E3,1.2707707E4,4.2338458E2,1.1855178E3,8.286501E2,5.4682294E2,4.1414575E2,4.6426938E2,1.8898754E1,2.2009038E3,3.1723635E0,3.9698687E3,1.26943436E2,1.9418904E3,3.9097766E2,2.4222705E3,4.3324384E2,1.1811316E3,2.747963E3,7.4595776E3,2.5162832E3,5.643629E2,2.1053963E2,1.2497167E4,3.5366235E2,6.972224E1,3.67349E2,8.181689E2,5.0915043E1,7.7773505E2,1.0722467E1,5.3610046E2,1.8762694E2,2.2651881E2,1.6132094E2,3.0294846E2,7.699956E0,1.1198798E1,2.1892996E3,1.16044035E1,1.0239646E0,2.1483989E0,3.9687556E3,1.1129689E0],"tree_param":{"num_deleted":"0","num_feature":"53","num_nodes":"63","size_leaf_vector":"0"}},{"base_weights":[-2.670085E-2,-3.0189916E-1,2.3494554E-1,7.353403E-3,-3.877312E-1,1.01725824E-1,4.3296024E-1,-2.8005195E-1,2.4856052E-1,-4.9081093E-1,-2.9121262E-1,2.7822658E-1,-8.447731E-2,5.094368E-1,1.8132435E-1,-3.4209883E-1,4.145657E-2,3.176197E-1,-1.6961741E-1,-5.1206106E-1,-4.399512E-1,-4.193176E-1,-1.646192E-1,4.2578718E-1,1.129651E-1,-4.1181386E-2,-7.404098E-1,3.2305938E-1,5.548564E-1,-2.0906629E-1,3.031171E-1,-4.3456843E-1,-2.3630011E-1,2.0067027E-2,1.617344E0,3.538431E-1,-3.6931717E-1,-3.0892712E-1,1.9617332E-2,-5.123904E-1,7.159097E-1,-3.2418096E-1,-4.504197E-1,-3.5516128E-1,-4.9512097E-1,2.7850148E-1,-2.6616344E-1,1.4287686E-1,4.749954E-1,-3.1822452E-1,1.7846982E-1,-1.266227E-1,3.2953376E-1,-1.2291669E0,-5.478485E-1,4.3762198E-1,1.13547675E-1,5.796302E-1,2.7276784E-1,1.6010568E-2,-3.804075E-1,-9.192742E-2,4.1564E-1],"categories":[],"categories_nodes":[],"categories_segments":[],"categories_sizes":[],"default_left":[1,1,1,1,1,1,1,1,1,1,1,1,1,1,1,1,1,1,1,1,1,1,1,1,1,1,1,1,1,1,1,0,0,0,0,0,0,0,0,0,0,0,0,0,0,0,0,0,0,0,0,0,0,0,0,0,0,0,0,0,0,0,0],"id":9,"left_children":[1,3,5,7,9,11,13,15,17,19,21,23,25,27,29,31,33,35,37,39,41,43,45,47,49,51,53,55,57,59,61,-1,-1,-1,-1,-1,-1,-1,-1,-1,-1,-1,-1,-1,-1,-1,-1,-1,-1,-1,-1,-1,-1,-1,-1,-1,-1,-1,-1,-1,-1,-1,-1],"loss_changes":[3.2834795E3,5.899346E2,6.166046E2,3.348589E2,1.7293726E2,4.5933585E2,1.8082983E2,4.3982956E1,7.589668E1,8.86499E0,1.456698E2,1.7492273E2,1.9313258E2,6.085083E1,1.04325096E2,1.7973236E1,1.2016116E1,5.622583E1,9.836093E0,2.7630615E0,2.8664856E0,2.1543518E1,2.0353145E2,5.2696777E1,9.569072E1,2.0217525E2,3.8958694E1,3.391516E1,4.0342896E1,2.0138018E1,7.4352264E1,0E0,0E0,0E0,0E0,0E0,0E0,0E0,0E0,0E0,0E0,0E0,0E0,0E0,0E0,0E0,0E0,0E0,0E0,0E0,0E0,0E0,0E0,0E0,0E0,0E0,0E0,0E0,0E0,0E0,0E0,0E0,0E0],"parents":[2147483647,0,0,1,1,2,2,3,3,4,4,5,5,6,6,7,7,8,8,9,9,10,10,11,11,12,12,13,13,14,14,15,15,16,16,17,17,18,18,19,19,20,20,21,21,22,22,23,23,24,24,25,25,26,26,27,27,28,28,29,29,30,30],"right_children":[2,4,6,8,10,12,14,16,18,20,22,24,26,28,30,32,34,36,38,40,42,44,46,48,50,52,54,56,58,60,62,-1,-1,-1,-1,-1,-1,-1,-1,-1,-1,-1,-1,-1,-1,-1,-1,-1,-1,-1,-1,-1,-1,-1,-1,-1,-1,-1,-1,-1,-1,-1,-1],"split_conditions":[8.36096E-3,9.8876074E2,6.5573325E0,1.6419315E-3,2.2380846E-3,9.953627E2,9.25E1,5.7094414E-3,1.8485273E0,2.3772549E-2,1.0563536E0,6.993395E-2,1.8680133E2,1.5384717E2,1.5526108E2,1.670122E-2,6.379365E0,7.5882373E0,6.245205E0,2.4359111E3,9.992012E2,8.846912E1,7.267632E-2,6.908826E1,8.3719977E2,1.672334E2,1.0636459E3,9.99645E2,1.8302094E2,9.837147E2,5.8345553E-2,-4.3456843E-1,-2.3630011E-1,2.0067027E-2,1.617344E0,3.538431E-1,-3.6931717E-1,-3.0892712E-1,1.9617332E-2,-5.123904E-1,7.159097E-1,-3.2418096E-1,-4.504197E-1,-3.5516128E-1,-4.9512097E-1,2.7850148E-1,-2.6616344E-1,1.4287686E-1,4.749954E-1,-3.1822452E-1,1.7846982E-1,-1.266227E-1,3.2953376E-1,-1.2291669E0,-5.478485E-1,4.3762198E-1,1.13547675E-1,5.796302E-1,2.7276784E-1,1.6010568E-2,-3.804075E-1,-9.192742E-2,4.1564E-1],"split_indices":[15,1,8,36,36,1,52,15,39,14,19,37,48,50,50,14,18,29,7,1,1,48,46,49,1,3,1,1,49,1,23,0,0,0,0,0,0,0,0,0,0,0,0,0,0,0,0,0,0,0,0,0,0,0,0,0,0,0,0,0,0,0,0],"split_type":[0,0,0,0,0,0,0,0,0,0,0,0,0,0,0,0,0,0,0,0,0,0,0,0,0,0,0,0,0,0,0,0,0,0,0,0,0,0,0,0,0,0,0,0,0,0,0,0,0,0,0,0,0,0,0,0,0,0,0,0,0,0,0],"sum_hessian":[4.5598957E4,2.222386E4,2.3375096E4,4.8283267E3,1.7395533E4,1.3974732E4,9.400363E3,2.2031033E3,2.6252234E3,8.409881E3,8.985652E3,7.174026E3,6.800707E3,7.208537E3,2.1918257E3,1.8466587E3,3.564447E2,2.25334E3,3.7188315E2,5.9251675E3,2.4847134E3,4.465012E3,4.5206396E3,3.7891494E3,3.3848762E3,6.380607E3,4.2009995E2,1.4140715E3,5.794466E3,5.210267E2,1.6707991E3,9.8374445E2,8.6291425E2,3.5267062E2,3.7740698E0,2.1409302E3,1.1241004E2,2.1383261E2,1.5805052E2,5.9241616E3,1.0058452E0,2.0869853E2,2.276015E3,2.4213682E3,2.0436443E3,8.4247754E2,3.6781624E3,5.619962E2,3.2271533E3,4.4589322E2,2.9389832E3,5.1860093E3,1.1945975E3,1.17211525E2,3.0288843E2,9.1348315E2,5.0058838E2,5.3256943E3,4.687713E2,2.255918E2,2.9543484E2,3.7044098E2,1.300358E3],"tree_param":{"num_deleted":"0","num_feature":"53","num_nodes":"63","size_leaf_vector":"0"}},{"base_weights":[3.280629E-2,-8.0614746E-2,1.6393666E-1,7.51649E-2,-2.821151E-1,8.4705845E-2,3.547847E-1,2.0794298E-2,4.191916E-1,-3.5555208E-1,-1.1162312E-1,-2.3305092E-4,2.3194867E-1,2.4324353E-1,4.5306015E-1,-1.5407847E-1,1.1296675E-1,-5.7771042E-2,4.754221E-1,2.4415107E-2,-3.8042697E-1,6.130568E-2,-2.6322183E-1,1.1340999E-1,-1.2259378E-1,3.3692458E-1,3.909717E-2,3.1674415E-1,1.0140564E-1,4.9708E-2,4.783549E-1,-1.9903755E-1,9.425787E-2,-1.0240704E-1,1.5790696E-1,6.7580456E-1,-1.5085413E-1,5.719379E-1,1.3514103E-1,1.7287737E-1,-2.5163716E-1,-4.318903E-1,-2.2333957E-1,1.1962741E-3,5.0358933E-1,-2.8206772E-1,2.5757647E-1,2.1804697E-3,2.1472324E-1,1.09098196E-1,-1.8629387E-1,2.73015E-1,4.954901E-1,2.9882726E-1,-8.1195004E-2,3.5617656E-1,-8.528229E-3,-2.4576019E-1,1.726625E-1,-2.4629855E-1,3.2243392E-1,5.6913114E-1,4.0824172E-1],"categories":[],"categories_nodes":[],"categories_segments":[],"categories_sizes":[],"default_left":[1,1,1,1,1,1,1,1,1,1,1,1,1,1,1,1,1,1,1,1,1,1,1,1,1,1,1,1,1,1,1,0,0,0,0,0,0,0,0,0,0,0,0,0,0,0,0,0,0,0,0,0,0,0,0,0,0,0,0,0,0,0,0],"id":10,"left_children":[1,3,5,7,9,11,13,15,17,19,21,23,25,27,29,31,33,35,37,39,41,43,45,47,49,51,53,55,57,59,61,-1,-1,-1,-1,-1,-1,-1,-1,-1,-1,-1,-1,-1,-1,-1,-1,-1,-1,-1,-1,-1,-1,-1,-1,-1,-1,-1,-1,-1,-1,-1,-1],"loss_changes":[5.9375507E2,6.719667E2,2.7994147E2,2.2583047E2,1.1682361E2,1.6364908E2,5.9427307E1,1.6808575E2,4.4218445E1,6.166559E1,7.3721436E1,1.154166E2,9.689578E1,2.6511932E1,2.9423523E1,4.020597E1,6.6110565E1,1.2028177E1,4.833383E1,1.650881E1,4.939984E1,3.4936855E1,1.477858E1,4.8494083E1,5.9007584E1,3.1274628E1,5.2774826E1,2.150772E1,2.1577757E1,1.39191E1,1.7052673E1,0E0,0E0,0E0,0E0,0E0,0E0,0E0,0E0,0E0,0E0,0E0,0E0,0E0,0E0,0E0,0E0,0E0,0E0,0E0,0E0,0E0,0E0,0E0,0E0,0E0,0E0,0E0,0E0,0E0,0E0,0E0,0E0],"parents":[2147483647,0,0,1,1,2,2,3,3,4,4,5,5,6,6,7,7,8,8,9,9,10,10,11,11,12,12,13,13,14,14,15,15,16,16,17,17,18,18,19,19,20,20,21,21,22,22,23,23,24,24,25,25,26,26,27,27,28,28,29,29,30,30],"right_children":[2,4,6,8,10,12,14,16,18,20,22,24,26,28,30,32,34,36,38,40,42,44,46,48,50,52,54,56,58,60,62,-1,-1,-1,-1,-1,-1,-1,-1,-1,-1,-1,-1,-1,-1,-1,-1,-1,-1,-1,-1,-1,-1,-1,-1,-1,-1,-1,-1,-1,-1,-1,-1],"split_conditions":[5.95E1,4.9084063E0,8.2008886E-1,4.4458777E-1,9.4175674E1,8.35E1,1.035491E3,5.6727004E-1,1.9077679E1,9.146398E2,2.074717E-2,4.462988E-2,6.61721E-2,4.394278E-2,2.0432648E-1,1.1501277E3,5.9106134E-2,9.098702E2,1.1239694E-1,4.7113018E1,1.0607592E3,2.3486267E1,1.3412786E3,1.0352374E3,7.594797E1,1.015E2,-3.9652362E0,-2.9032397E0,4.6272796E-1,1.5102408E2,1.1052612E3,-1.9903755E-1,9.425787E-2,-1.0240704E-1,1.5790696E-1,6.7580456E-1,-1.5085413E-1,5.719379E-1,1.3514103E-1,1.7287737E-1,-2.5163716E-1,-4.318903E-1,-2.2333957E-1,1.1962741E-3,5.0358933E-1,-2.8206772E-1,2.5757647E-1,2.1804697E-3,2.1472324E-1,1.09098196E-1,-1.8629387E-1,2.73015E-1,4.954901E-1,2.9882726E-1,-8.1195004E-2,3.5617656E-1,-8.528229E-3,-2.4576019E-1,1.726625E-1,-2.4629855E-1,3.2243392E-1,5.6913114E-1,4.0824172E-1],"split_indices":[52,7,10,24,47,52,1,9,50,1,23,23,23,23,45,1,22,1,22,26,1,7,1,1,50,52,12,12,34,49,1,0,0,0,0,0,0,0,0,0,0,0,0,0,0,0,0,0,0,0,0,0,0,0,0,0,0,0,0,0,0,0,0],"split_type":[0,0,0,0,0,0,0,0,0,0,0,0,0,0,0,0,0,0,0,0,0,0,0,0,0,0,0,0,0,0,0,0,0,0,0,0,0,0,0,0,0,0,0,0,0,0,0,0,0,0,0,0,0,0,0,0,0,0,0,0,0,0,0],"sum_hessian":[3.991994E4,2.1405592E4,1.8514352E4,1.2072774E4,9.332817E3,1.3083968E4,5.4303833E3,1.0426078E4,1.6466959E3,6.522332E3,2.8104858E3,8.298102E3,4.7858667E3,2.54515E3,2.8852332E3,3.5983994E3,6.8276787E3,1.7365761E2,1.4730383E3,4.007561E2,6.1215757E3,1.3131593E3,1.4973264E3,4.3023496E3,3.995752E3,3.0984976E3,1.6873693E3,1.6756119E3,8.695381E2,1.704346E2,2.7147986E3,3.046971E3,5.514285E2,1.1784991E3,5.6491797E3,1.8849213E1,1.548084E2,1.1470215E3,3.2601688E2,2.6084573E2,1.3991037E2,4.6096587E3,1.5119174E3,1.1569275E3,1.5623174E2,1.445478E3,5.184843E1,2.0512976E3,2.2510518E3,8.6151385E2,3.134238E3,2.2103435E3,8.8815393E2,5.336497E2,1.1537195E3,1.4943577E3,1.8125426E2,1.4766418E2,7.218739E2,8.177546E1,8.865914E1,1.1799666E3,1.5348319E3],"tree_param":{"num_deleted":"0","num_feature":"53","num_nodes":"63","size_leaf_vector":"0"}},{"base_weights":[2.7457632E-2,1.4295288E-4,2.9889402E-1,2.5849813E-1,-2.4463648E-2,2.2653918E-1,5.464161E-1,5.319262E-1,1.9807416E-1,-3.6485806E-1,-1.1076396E-2,-2.4329671E-1,2.4858181E-1,4.444198E-1,1.324658E0,4.223344E-1,1.1900365E0,-3.6237603E-1,2.223991E-1,-3.854621E-1,1.4494214E0,-1.1371423E-1,1.4640322E-2,-3.6955604E-1,1.0361059E0,1.7946485E-1,3.188315E-1,-3.380947E-1,4.9277705E-1,1.5194463E0,2.1259242E-1,5.0278926E-1,-2.5336567E-1,1.6032945E0,7.954086E-1,-4.4613013E-1,5.5907243E-1,8.819809E-1,2.1194582E-1,2.5994503E-1,-4.4072777E-1,2.9710493E0,3.1572142E-1,-7.481337E-2,-2.9006246E-1,7.746394E-2,-2.042656E-2,8.559305E-2,-4.7067198E-1,1.4352895E0,-1.8530925E-1,2.0560053E-1,-1.258913E-1,4.1651732E-1,1.7255381E-1,-3.8051558E-1,7.2890884E-1,3.9975092E-1,7.723683E-1,1.0654789E0,1.8860519E0,1.6961083E0,-7.6005682E-3],"categories":[],"categories_nodes":[],"categories_segments":[],"categories_sizes":[],"default_left":[1,1,1,1,1,1,1,1,1,1,1,1,1,1,1,1,1,1,1,1,1,1,1,1,1,1,1,1,1,1,1,0,0,0,0,0,0,0,0,0,0,0,0,0,0,0,0,0,0,0,0,0,0,0,0,0,0,0,0,0,0,0,0],"id":11,"left_children":[1,3,5,7,9,11,13,15,17,19,21,23,25,27,29,31,33,35,37,39,41,43,45,47,49,51,53,55,57,59,61,-1,-1,-1,-1,-1,-1,-1,-1,-1,-1,-1,-1,-1,-1,-1,-1,-1,-1,-1,-1,-1,-1,-1,-1,-1,-1,-1,-1,-1,-1,-1,-1],"loss_changes":[3.0184793E2,2.3516623E2,6.6540344E1,5.30421E1,1.5390689E2,2.9908035E1,6.618863E1,4.144615E1,3.601995E1,4.8333374E1,8.578038E1,2.1327477E1,1.331163E1,2.8368332E1,2.0683365E1,2.731697E1,1.2175575E1,8.7417145E0,1.7237457E1,4.521675E1,2.418101E1,4.4646523E1,5.7253174E1,5.5054684E0,6.0724726E0,1.1120361E1,1.9421707E1,2.2675443E0,1.7957962E1,1.16970215E1,5.114299E0,0E0,0E0,0E0,0E0,0E0,0E0,0E0,0E0,0E0,0E0,0E0,0E0,0E0,0E0,0E0,0E0,0E0,0E0,0E0,0E0,0E0,0E0,0E0,0E0,0E0,0E0,0E0,0E0,0E0,0E0,0E0,0E0],"parents":[2147483647,0,0,1,1,2,2,3,3,4,4,5,5,6,6,7,7,8,8,9,9,10,10,11,11,12,12,13,13,14,14,15,15,16,16,17,17,18,18,19,19,20,20,21,21,22,22,23,23,24,24,25,25,26,26,27,27,28,28,29,29,30,30],"right_children":[2,4,6,8,10,12,14,16,18,20,22,24,26,28,30,32,34,36,38,40,42,44,46,48,50,52,54,56,58,60,62,-1,-1,-1,-1,-1,-1,-1,-1,-1,-1,-1,-1,-1,-1,-1,-1,-1,-1,-1,-1,-1,-1,-1,-1,-1,-1,-1,-1,-1,-1,-1,-1],"split_conditions":[1.0939755E0,-1.1345029E0,1.54127E0,-1.6165233E0,4.0006256E-3,4.7011757E-3,1.0382445E2,9.3090195E1,4.4433996E-3,2.1425541E-2,4.7305638E-1,9.373922E0,4.45E1,8.288391E-2,7.814768E0,5.554785E-3,4.6489906E-1,9.074337E0,4.410665E-1,6.657765E1,1.0205851E3,1.6146024E2,4.3077302E-1,5.118124E-3,4.396274E-2,7.4470924E1,4.649533E-1,8.900029E-1,4.95E1,1.6645129E0,1.1952524E2,5.0278926E-1,-2.5336567E-1,1.6032945E0,7.954086E-1,-4.4613013E-1,5.5907243E-1,8.819809E-1,2.1194582E-1,2.5994503E-1,-4.4072777E-1,2.9710493E0,3.1572142E-1,-7.481337E-2,-2.9006246E-1,7.746394E-2,-2.042656E-2,8.559305E-2,-4.7067198E-1,1.4352895E0,-1.8530925E-1,2.0560053E-1,-1.258913E-1,4.1651732E-1,1.7255381E-1,-3.8051558E-1,7.2890884E-1,3.9975092E-1,7.723683E-1,1.0654789E0,1.8860519E0,1.6961083E0,-7.6005682E-3],"split_indices":[2,2,2,2,17,17,3,47,17,15,11,7,52,25,8,36,13,7,19,3,1,50,13,36,37,49,34,30,52,2,47,0,0,0,0,0,0,0,0,0,0,0,0,0,0,0,0,0,0,0,0,0,0,0,0,0,0,0,0,0,0,0,0],"split_type":[0,0,0,0,0,0,0,0,0,0,0,0,0,0,0,0,0,0,0,0,0,0,0,0,0,0,0,0,0,0,0,0,0,0,0,0,0,0,0,0,0,0,0,0,0,0,0,0,0,0,0,0,0,0,0,0,0,0,0,0,0,0,0],"sum_hessian":[4.0711156E4,3.6989863E4,3.7212944E3,3.215844E3,3.377402E4,2.8810352E3,8.402593E2,5.8062415E2,2.6352197E3,1.2770302E3,3.249699E4,1.2865848E2,2.7523767E3,7.442845E2,9.597477E1,4.991457E2,8.147848E1,1.0903936E2,2.5261804E3,1.263469E3,1.3561172E1,6.51031E3,2.598668E4,1.1774938E2,1.0909085E1,1.3891653E3,1.3632115E3,4.2969078E1,7.013154E2,8.135789E1,1.4616883E1,4.462653E2,5.288039E1,3.830369E1,4.3174786E1,1.00426994E2,8.612367E0,3.8110474E1,2.48807E3,9.936419E1,1.1641047E3,5.0980334E0,8.463138E0,5.334902E3,1.1754081E3,9.308661E3,1.667802E4,2.1431982E1,9.6317406E1,8.090002E0,2.8190835E0,1.2799408E3,1.0922447E2,8.162581E2,5.4695337E2,4.1944855E1,1.0242234E0,5.280511E2,1.7326437E2,3.8093315E1,4.326457E1,1.0228391E0,1.3594045E1],"tree_param":{"num_deleted":"0","num_feature":"53","num_nodes":"63","size_leaf_vector":"0"}},{"base_weights":[-4.6363253E-2,6.028607E-2,-4.2052302E-1,2.869425E-1,-3.3367384E-2,-2.8091088E-1,-4.7585556E-1,3.393628E-1,3.7472595E-2,8.893216E-2,-1.3688813E-1,-4.0596876E-1,-1.3212858E-1,-5.0345975E-1,-4.164945E-1,3.7847352E-1,3.368666E-2,-9.307052E-2,3.1721058E-1,-3.7864694E-1,1.2213651E-1,3.1303924E-3,-2.8298318E-1,-4.09541E-1,5.539124E-1,1.22967534E-1,-3.6481196E-1,-3.968612E-1,-5.0620425E-1,-2.5476512E-1,-4.6017173E-1,4.3703997E-1,2.6905167E-1,2.5312138E-1,-3.1674463E-1,2.7061459E-2,-2.1901925E-1,1.24766394E-1,6.437604E-1,1.0363098E-1,-4.0932757E-1,2.440451E-1,3.115769E-2,-4.698488E-1,2.7522357E-2,-3.735481E-1,-2.1041198E-1,7.4099237E-1,-4.1227594E-1,1.3200042E0,-3.366344E-1,2.8054696E-1,-2.1886215E-1,-3.8454232E-1,6.111879E-1,-4.7938082E-1,-1.9072092E-1,-5.0680864E-1,-2.0696929E-1,-1.348138E-1,-4.0995672E-1,-4.9064368E-1,-4.1342595E-1],"categories":[],"categories_nodes":[],"categories_segments":[],"categories_sizes":[],"default_left":[1,1,1,1,1,1,1,1,1,1,1,1,1,1,1,1,1,1,1,1,1,1,1,1,1,1,1,1,1,1,1,0,0,0,0,0,0,0,0,0,0,0,0,0,0,0,0,0,0,0,0,0,0,0,0,0,0,0,0,0,0,0,0],"id":12,"left_children":[1,3,5,7,9,11,13,15,17,19,21,23,25,27,29,31,33,35,37,39,41,43,45,47,49,51,53,55,57,59,61,-1,-1,-1,-1,-1,-1,-1,-1,-1,-1,-1,-1,-1,-1,-1,-1,-1,-1,-1,-1,-1,-1,-1,-1,-1,-1,-1,-1,-1,-1,-1,-1],"loss_changes":[1.1811089E3,4.8895245E2,5.0584473E1,8.806055E1,2.0637909E2,3.466472E1,7.4924316E0,6.652118E1,4.2775925E1,1.16067505E2,1.8058943E2,3.7014313E0,5.0712986E1,7.3638916E-1,1.0462952E1,3.1500977E1,4.8708996E1,1.2093441E1,2.3339588E1,7.377548E0,7.738765E1,5.203053E1,2.8316376E1,3.4839783E0,3.2976265E0,2.2035637E1,8.836575E0,1.3551579E0,4.593506E-1,5.915186E0,1.475235E0,0E0,0E0,0E0,0E0,0E0,0E0,0E0,0E0,0E0,0E0,0E0,0E0,0E0,0E0,0E0,0E0,0E0,0E0,0E0,0E0,0E0,0E0,0E0,0E0,0E0,0E0,0E0,0E0,0E0,0E0,0E0,0E0],"parents":[2147483647,0,0,1,1,2,2,3,3,4,4,5,5,6,6,7,7,8,8,9,9,10,10,11,11,12,12,13,13,14,14,15,15,16,16,17,17,18,18,19,19,20,20,21,21,22,22,23,23,24,24,25,25,26,26,27,27,28,28,29,29,30,30],"right_children":[2,4,6,8,10,12,14,16,18,20,22,24,26,28,30,32,34,36,38,40,42,44,46,48,50,52,54,56,58,60,62,-1,-1,-1,-1,-1,-1,-1,-1,-1,-1,-1,-1,-1,-1,-1,-1,-1,-1,-1,-1,-1,-1,-1,-1,-1,-1,-1,-1,-1,-1,-1,-1],"split_conditions":[7.486825E0,1.4852885E0,7.4045686E-3,6.532412E-3,7.843602E-1,7.6719604E1,1.0403658E3,8.381821E1,1.0114496E3,9.626212E2,4.45E1,-1.4412398E0,8.2634674E1,4.441857E1,3.1786007E-1,8.8795316E-1,1.1146873E3,8.09606E1,-2.5079312E0,1.7672725E0,5.4504204E-1,9.368413E2,4.1986113E0,1.1200862E0,5.3412217E-1,5.861174E-1,-1.8324339E0,8.5402596E-1,9.678445E-1,5.781903E-2,1.3529127E0,4.3703997E-1,2.6905167E-1,2.5312138E-1,-3.1674463E-1,2.7061459E-2,-2.1901925E-1,1.24766394E-1,6.437604E-1,1.0363098E-1,-4.0932757E-1,2.440451E-1,3.115769E-2,-4.698488E-1,2.7522357E-2,-3.735481E-1,-2.1041198E-1,7.4099237E-1,-4.1227594E-1,1.3200042E0,-3.366344E-1,2.8054696E-1,-2.1886215E-1,-3.8454232E-1,6.111879E-1,-4.7938082E-1,-1.9072092E-1,-5.0680864E-1,-2.0696929E-1,-1.348138E-1,-4.0995672E-1,-4.9064368E-1,-4.1342595E-1],"split_indices":[7,19,36,15,10,49,1,50,1,1,52,12,49,4,33,19,1,50,12,19,11,1,7,18,11,31,12,11,11,44,19,0,0,0,0,0,0,0,0,0,0,0,0,0,0,0,0,0,0,0,0,0,0,0,0,0,0,0,0,0,0,0,0],"split_type":[0,0,0,0,0,0,0,0,0,0,0,0,0,0,0,0,0,0,0,0,0,0,0,0,0,0,0,0,0,0,0,0,0,0,0,0,0,0,0,0,0,0,0,0,0,0,0,0,0,0,0,0,0,0,0,0,0,0,0,0,0,0,0],"sum_hessian":[2.9597205E4,2.3032838E4,6.5643687E3,6.7338276E3,1.629901E4,1.8649365E3,4.699432E3,5.564266E3,1.1695612E3,7.4718716E3,8.827139E3,1.0123144E3,8.5262213E2,3.2026484E3,1.4967838E3,4.9328755E3,6.313907E2,7.9788556E2,3.7167566E2,4.947312E2,6.9771406E3,4.507805E3,4.319333E3,1.0091322E3,3.1822007E0,4.0694763E2,4.456745E2,8.404017E1,3.1186084E3,3.1972595E2,1.1770579E3,3.2111562E3,1.7217191E3,3.8843582E2,2.4295488E2,4.0877466E2,3.8911087E2,2.3472704E2,1.3694861E2,2.9448198E1,4.65283E2,2.9810073E3,3.996133E3,2.2017514E2,4.28763E3,1.9196134E3,2.39972E3,1.7529608E0,1.0073792E3,1.4513974E0,1.7308033E0,2.7866544E2,1.282822E2,4.3743744E2,8.2370405E0,5.9068905E1,2.4971264E1,3.1116296E3,6.9785647E0,1.8139221E2,1.3833374E2,7.0681433E2,4.7024347E2],"tree_param":{"num_deleted":"0","num_feature":"53","num_nodes":"63","size_leaf_vector":"0"}},{"base_weights":[-2.6476312E-2,4.497142E-2,-4.315455E-1,-4.4726763E-2,3.561603E-1,-3.0549067E-1,-4.740882E-1,-1.170394E-1,7.5216964E-2,4.3700278E-1,-4.060514E-2,-4.5603254E-1,-1.0487266E-1,-5.0293326E-1,-4.2840576E-1,-4.97305E-4,-2.7360815E-1,1.7550716E-1,-2.4349979E-1,-2.3487233E-1,4.491091E-1,2.8352255E-1,-3.267033E-1,-5.23977E-1,-3.5521844E-1,1.8078557E-1,-3.222123E-1,1.6205047E-1,-5.037967E-1,-3.2055652E-1,-4.729682E-1,5.782278E-2,-3.6798722E-1,-2.4366328E-1,-4.320217E-1,3.7464803E-1,2.5111737E-2,-7.895078E-2,-3.8046882E-1,-6.8383044E-1,1.0796833E-1,4.917561E-1,3.1555128E-1,3.7962237E-1,-8.627535E-2,-1.1644254E-1,-5.443119E-1,-5.2936786E-1,7.158233E-1,5.0797254E-1,-3.8861716E-1,-1.9115388E-1,5.1478493E-1,-3.9344296E-1,7.210754E-2,-3.050706E-1,6.181597E-1,2.4459569E-1,-5.0430506E-1,6.4584863E-1,-3.364826E-1,-5.0509596E-1,-4.3042588E-1],"categories":[],"categories_nodes":[],"categories_segments":[],"categories_sizes":[],"default_left":[1,1,1,1,1,1,1,1,1,1,1,1,1,1,1,1,1,1,1,1,1,1,1,1,1,1,1,1,1,1,1,0,0,0,0,0,0,0,0,0,0,0,0,0,0,0,0,0,0,0,0,0,0,0,0,0,0,0,0,0,0,0,0],"id":13,"left_children":[1,3,5,7,9,11,13,15,17,19,21,23,25,27,29,31,33,35,37,39,41,43,45,47,49,51,53,55,57,59,61,-1,-1,-1,-1,-1,-1,-1,-1,-1,-1,-1,-1,-1,-1,-1,-1,-1,-1,-1,-1,-1,-1,-1,-1,-1,-1,-1,-1,-1,-1,-1,-1],"loss_changes":[8.2926105E2,6.7990533E2,2.2894348E1,1.6400911E2,1.7483093E2,3.2777496E1,4.0148315E0,2.1525426E2,2.2738855E2,3.6932922E1,8.572355E1,4.065094E0,2.906698E1,1.2081604E0,5.852371E0,1.449846E2,2.3774078E1,1.6204054E2,3.834823E1,1.2509861E1,2.5179138E1,1.543726E1,2.2399754E1,2.8429031E0,7.490736E0,2.5258335E1,7.491604E0,8.9185494E-1,8.6898804E-1,5.8868484E0,9.8794556E-1,0E0,0E0,0E0,0E0,0E0,0E0,0E0,0E0,0E0,0E0,0E0,0E0,0E0,0E0,0E0,0E0,0E0,0E0,0E0,0E0,0E0,0E0,0E0,0E0,0E0,0E0,0E0,0E0,0E0,0E0,0E0,0E0],"parents":[2147483647,0,0,1,1,2,2,3,3,4,4,5,5,6,6,7,7,8,8,9,9,10,10,11,11,12,12,13,13,14,14,15,15,16,16,17,17,18,18,19,19,20,20,21,21,22,22,23,23,24,24,25,25,26,26,27,27,28,28,29,29,30,30],"right_children":[2,4,6,8,10,12,14,16,18,20,22,24,26,28,30,32,34,36,38,40,42,44,46,48,50,52,54,56,58,60,62,-1,-1,-1,-1,-1,-1,-1,-1,-1,-1,-1,-1,-1,-1,-1,-1,-1,-1,-1,-1,-1,-1,-1,-1,-1,-1,-1,-1,-1,-1,-1,-1],"split_conditions":[9.586124E-3,8.599696E1,1.0053437E-2,6.470155E0,9.5714874E1,8.9320984E1,1.0292136E3,4.45E1,9.4048676E1,8.735657E1,4.85E1,1.0079817E3,9.592546E1,2.15E1,3.5044807E-1,7.618146E1,4.3507248E-1,5.7470095E-3,7.5336933E-1,7.5879526E-1,9.433148E1,1.119085E3,1.0765505E3,9.618689E-1,8.858874E-4,1.0019426E3,-2.6803398E0,2.9800478E-2,3.8279496E-2,9.75543E1,9.424206E-1,5.782278E-2,-3.6798722E-1,-2.4366328E-1,-4.320217E-1,3.7464803E-1,2.5111737E-2,-7.895078E-2,-3.8046882E-1,-6.8383044E-1,1.0796833E-1,4.917561E-1,3.1555128E-1,3.7962237E-1,-8.627535E-2,-1.1644254E-1,-5.443119E-1,-5.2936786E-1,7.158233E-1,5.0797254E-1,-3.8861716E-1,-1.9115388E-1,5.1478493E-1,-3.9344296E-1,7.210754E-2,-3.050706E-1,6.181597E-1,2.4459569E-1,-5.0430506E-1,6.4584863E-1,-3.364826E-1,-5.0509596E-1,-4.3042588E-1],"split_indices":[15,49,36,7,47,48,1,52,3,50,52,1,48,52,33,48,24,36,10,39,3,1,1,33,31,1,12,16,33,49,40,0,0,0,0,0,0,0,0,0,0,0,0,0,0,0,0,0,0,0,0,0,0,0,0,0,0,0,0,0,0,0,0],"split_type":[0,0,0,0,0,0,0,0,0,0,0,0,0,0,0,0,0,0,0,0,0,0,0,0,0,0,0,0,0,0,0,0,0,0,0,0,0,0,0,0,0,0,0,0,0,0,0,0,0,0,0,0,0,0,0,0,0,0,0,0,0,0,0],"sum_hessian":[2.865156E4,2.4356375E4,4.2951865E3,1.8907318E4,5.4490557E3,1.0858805E3,3.209306E3,1.1795798E4,7.111521E3,4.5266353E3,9.2242035E2,6.196373E2,4.662432E2,1.9610427E3,1.2482631E3,6.7628604E3,5.032938E3,5.409705E3,1.7018157E3,7.979483E1,4.446841E3,4.324716E2,4.8994873E2,3.6765564E2,2.5198167E2,2.0153104E2,2.6471216E2,2.3008468E0,1.9587418E3,3.6736523E2,8.808978E2,5.8373276E3,9.255323E2,4.234946E3,7.979923E2,2.326999E3,3.082706E3,7.737911E2,9.2802466E2,3.4119682E1,4.5675148E1,3.368535E3,1.0783057E3,3.432454E2,8.922618E1,2.4996207E2,2.3998668E2,3.6663446E2,1.0211858E0,8.857224E0,2.4312445E2,9.5552315E1,1.0597873E2,2.2421228E2,4.049988E1,1.3002998E0,1.0005472E0,1.0038183E0,1.957738E3,5.3146753E0,3.6205057E2,4.9568542E2,3.8521243E2],"tree_param":{"num_deleted":"0","num_feature":"53","num_nodes":"63","size_leaf_vector":"0"}},{"base_weights":[-8.944511E-3,-2.8869906E-1,1.0422771E-1,-4.0741694E-1,-1.6860136E-1,4.3303818E-2,2.614466E-1,-1.765278E-1,-4.5665064E-1,-2.7905904E-2,-2.3646168E-1,1.4677957E-1,-8.287303E-2,3.0628556E-1,-1.08667225E-1,-2.1989372E-1,2.320299E-1,-4.6873042E-1,-3.224441E-1,-8.593396E-2,3.152853E-1,-2.9410112E-1,-1.1856717E-1,-1.4071545E-1,2.384149E-1,4.4583615E-2,-2.1050459E-1,1.5574439E-1,3.7111992E-1,-1.8228275E-1,4.599032E-1,-2.6788267E-1,1.1521162E-1,1.0108675E0,4.7893144E-2,-4.8503155E-1,-4.3542957E-1,1.1553532E0,-3.3087918E-1,-1.3617967E-1,1.2820101E-1,4.5033604E-1,-2.4871816E-1,-2.395709E-1,-3.8245183E-1,-2.2289809E-2,-3.2590705E-1,-8.1564724E-2,-6.6958386E-1,4.062982E-1,1.3850603E-1,-2.848572E-1,8.9701794E-2,-2.6335612E-1,-1.7886745E-3,-7.8119725E-1,1.7505501E-1,4.3350697E-1,1.1224065E-1,-6.407939E-2,-3.8551298E-1,2.7450463E-1,1.1794832E0],"categories":[],"categories_nodes":[],"categories_segments":[],"categories_sizes":[],"default_left":[1,1,1,1,1,1,1,1,1,1,1,1,1,1,1,1,1,1,1,1,1,1,1,1,1,1,1,1,1,1,1,0,0,0,0,0,0,0,0,0,0,0,0,0,0,0,0,0,0,0,0,0,0,0,0,0,0,0,0,0,0,0,0],"id":14,"left_children":[1,3,5,7,9,11,13,15,17,19,21,23,25,27,29,31,33,35,37,39,41,43,45,47,49,51,53,55,57,59,61,-1,-1,-1,-1,-1,-1,-1,-1,-1,-1,-1,-1,-1,-1,-1,-1,-1,-1,-1,-1,-1,-1,-1,-1,-1,-1,-1,-1,-1,-1,-1,-1],"loss_changes":[1.0500077E3,1.3612408E2,2.2615842E2,5.4517517E1,4.5346695E1,2.222177E2,1.0947089E2,1.5036324E1,6.265869E0,3.0830524E1,2.1740524E1,2.4638492E2,1.2476514E2,5.7352844E1,2.9940136E1,1.23354225E1,1.16608715E1,1.7587891E0,4.4965515E0,1.4261188E1,1.7167938E1,1.0274002E1,2.1030962E1,7.066904E1,1.1888641E2,5.7072193E1,4.2270798E1,3.220475E1,6.63418E1,1.5163834E1,1.0622879E1,0E0,0E0,0E0,0E0,0E0,0E0,0E0,0E0,0E0,0E0,0E0,0E0,0E0,0E0,0E0,0E0,0E0,0E0,0E0,0E0,0E0,0E0,0E0,0E0,0E0,0E0,0E0,0E0,0E0,0E0,0E0,0E0],"parents":[2147483647,0,0,1,1,2,2,3,3,4,4,5,5,6,6,7,7,8,8,9,9,10,10,11,11,12,12,13,13,14,14,15,15,16,16,17,17,18,18,19,19,20,20,21,21,22,22,23,23,24,24,25,25,26,26,27,27,28,28,29,29,30,30],"right_children":[2,4,6,8,10,12,14,16,18,20,22,24,26,28,30,32,34,36,38,40,42,44,46,48,50,52,54,56,58,60,62,-1,-1,-1,-1,-1,-1,-1,-1,-1,-1,-1,-1,-1,-1,-1,-1,-1,-1,-1,-1,-1,-1,-1,-1,-1,-1,-1,-1,-1,-1,-1,-1],"split_conditions":[6.396753E-3,9.466491E-4,6.278129E0,9.7506946E2,1.0011357E3,1.1863997E0,1.105E2,1.2555788E-1,8.143966E1,8.9494574E-1,8.23002E1,4.8796034E-1,9.9493396E2,1.5656543E2,9.2195034E-2,1.927848E-2,7.636517E-1,5.9092857E1,8.1461426E1,3.3093944E-2,3.699816E-2,7.868352E1,6.2036376E0,1.7722977E2,1.990908E-2,1.0209212E0,3.2191895E-2,7.489421E2,1.8422049E2,1.235E2,7.583778E1,-2.6788267E-1,1.1521162E-1,1.0108675E0,4.7893144E-2,-4.8503155E-1,-4.3542957E-1,1.1553532E0,-3.3087918E-1,-1.3617967E-1,1.2820101E-1,4.5033604E-1,-2.4871816E-1,-2.395709E-1,-3.8245183E-1,-2.2289809E-2,-3.2590705E-1,-8.1564724E-2,-6.6958386E-1,4.062982E-1,1.3850603E-1,-2.848572E-1,8.9701794E-2,-2.6335612E-1,-1.7886745E-3,-7.8119725E-1,1.7505501E-1,4.3350697E-1,1.1224065E-1,-6.407939E-2,-3.8551298E-1,2.7450463E-1,1.1794832E0],"split_indices":[15,36,8,1,1,39,52,16,3,11,3,19,1,50,23,37,9,3,3,17,23,50,29,49,44,19,17,1,48,52,28,0,0,0,0,0,0,0,0,0,0,0,0,0,0,0,0,0,0,0,0,0,0,0,0,0,0,0,0,0,0,0,0],"split_type":[0,0,0,0,0,0,0,0,0,0,0,0,0,0,0,0,0,0,0,0,0,0,0,0,0,0,0,0,0,0,0,0,0,0,0,0,0,0,0,0,0,0,0,0,0,0,0,0,0,0,0,0,0,0,0,0,0,0,0,0,0,0,0],"sum_hessian":[3.3162707E4,9.551198E3,2.3611508E4,4.801989E3,4.74921E3,1.70181E4,6.5934077E3,8.447919E2,3.9571968E3,1.5457671E3,3.2034426E3,9.350078E3,7.6680225E3,5.8810913E3,7.123165E2,7.6414435E2,8.064752E1,3.6281394E3,3.2905746E2,1.3228451E3,2.22922E2,2.1505361E3,1.0529065E3,2.2597727E3,7.090305E3,3.8369658E3,3.831057E3,1.7714052E3,4.109686E3,6.3126324E2,8.105326E1,6.6859796E2,9.554638E1,1.4562634E1,6.608489E1,2.426686E3,1.2014534E3,1.0958617E0,3.279616E2,1.0717324E3,2.5111264E2,1.8001816E2,4.2903843E1,1.3320834E3,8.184528E2,7.19785E2,3.331215E2,2.0334929E3,2.2627966E2,2.6441328E3,4.4461724E3,4.6154855E2,3.3754172E3,3.056756E3,7.7430066E2,3.4975132E1,1.7364299E3,3.3110781E3,7.9860785E2,3.9995535E2,2.313079E2,6.554674E1,1.5506528E1],"tree_param":{"num_deleted":"0","num_feature":"53","num_nodes":"63","size_leaf_vector":"0"}},{"base_weights":[1.3307517E-2,-3.0857584E-1,3.2927252E-2,-3.7269744E-1,1.2508368E-1,-3.4637436E-2,1.1743473E-1,-4.1293022E-1,-9.791629E-2,2.8031167E-1,-1.4807919E-1,1.2215558E-1,-1.2929639E-1,7.6929495E-2,2.7003106E-1,-4.5635158E-1,-1.9367172E-1,-1.8104279E-1,7.6128864E-1,3.2211877E-2,4.4601178E-1,-3.3689603E-1,1.4459164E-1,2.8315243E-1,5.1563323E-2,-1.7855553E-1,3.459249E-2,2.5345204E-2,1.9915752E-1,1.1835924E-2,3.128037E-1,6.1361504E-1,-4.621022E-1,-3.043605E-1,3.2516096E-2,-3.0680734E-1,1.06298245E-1,-3.3944938E-1,1.0291361E0,6.245953E-1,-1.2796545E-1,-8.83716E-2,5.7579076E-1,7.633712E-2,-4.7664076E-1,-2.8412986E-1,2.864158E-1,4.59397E-2,3.1994686E-1,1.2355419E-1,-8.7675855E-2,-2.3603761E-1,-1.6438264E-2,1.1698918E-1,-5.9386104E-2,-2.3886363E-3,2.327445E-1,3.7829685E-1,7.5792395E-2,-1.33765E-1,1.6218135E-1,7.624728E-1,2.9977027E-1],"categories":[],"categories_nodes":[],"categories_segments":[],"categories_sizes":[],"default_left":[1,1,1,1,1,1,1,1,1,1,1,1,1,1,1,1,1,1,1,1,1,1,1,1,1,1,1,1,1,1,1,0,0,0,0,0,0,0,0,0,0,0,0,0,0,0,0,0,0,0,0,0,0,0,0,0,0,0,0,0,0,0,0],"id":15,"left_children":[1,3,5,7,9,11,13,15,17,19,21,23,25,27,29,31,33,35,37,39,41,43,45,47,49,51,53,55,57,59,61,-1,-1,-1,-1,-1,-1,-1,-1,-1,-1,-1,-1,-1,-1,-1,-1,-1,-1,-1,-1,-1,-1,-1,-1,-1,-1,-1,-1,-1,-1,-1,-1],"loss_changes":[2.2099564E2,5.595085E1,1.8832681E2,1.932518E1,1.1054435E1,2.7206033E2,9.0556656E1,1.4455933E1,1.621049E1,6.808193E0,5.2855635E0,7.84123E1,9.227989E1,7.301861E1,3.3939117E1,8.125E0,6.375802E0,7.476624E0,6.2587175E0,6.487916E0,6.9461555E0,3.3801298E0,2.3835201E0,1.8342392E1,4.811021E1,8.1895325E1,2.0467796E1,4.685427E1,7.592999E1,9.606115E0,1.5224213E1,0E0,0E0,0E0,0E0,0E0,0E0,0E0,0E0,0E0,0E0,0E0,0E0,0E0,0E0,0E0,0E0,0E0,0E0,0E0,0E0,0E0,0E0,0E0,0E0,0E0,0E0,0E0,0E0,0E0,0E0,0E0,0E0],"parents":[2147483647,0,0,1,1,2,2,3,3,4,4,5,5,6,6,7,7,8,8,9,9,10,10,11,11,12,12,13,13,14,14,15,15,16,16,17,17,18,18,19,19,20,20,21,21,22,22,23,23,24,24,25,25,26,26,27,27,28,28,29,29,30,30],"right_children":[2,4,6,8,10,12,14,16,18,20,22,24,26,28,30,32,34,36,38,40,42,44,46,48,50,52,54,56,58,60,62,-1,-1,-1,-1,-1,-1,-1,-1,-1,-1,-1,-1,-1,-1,-1,-1,-1,-1,-1,-1,-1,-1,-1,-1,-1,-1,-1,-1,-1,-1,-1,-1],"split_conditions":[7.2029764E-3,1.3066449E2,1.0410745E3,1.2321784E0,1.18131945E-2,9.776229E2,8.603833E-1,9.9613174E1,8.674448E-1,4.223665E-3,6.45E1,8.770094E2,7.35E1,7.65E1,1.1016851E1,6.187867E1,5.2709305E-1,8.0507314E-1,2.639635E-1,9.900148E-2,4.2172533E-1,1.4112678E-1,-4.1904992E-1,7.105839E-2,7.2933784E1,8.5367537E-1,5.368018E-2,4.3501174E-1,1.1032944E3,2.0395361E-1,8.214579E0,6.1361504E-1,-4.621022E-1,-3.043605E-1,3.2516096E-2,-3.0680734E-1,1.06298245E-1,-3.3944938E-1,1.0291361E0,6.245953E-1,-1.2796545E-1,-8.83716E-2,5.7579076E-1,7.633712E-2,-4.7664076E-1,-2.8412986E-1,2.864158E-1,4.59397E-2,3.1994686E-1,1.2355419E-1,-8.7675855E-2,-2.3603761E-1,-1.6438264E-2,1.1698918E-1,-5.9386104E-2,-2.3886363E-3,2.327445E-1,3.7829685E-1,7.5792395E-2,-1.33765E-1,1.6218135E-1,7.624728E-1,2.9977027E-1],"split_indices":[17,49,1,19,23,1,10,3,32,38,52,1,52,52,49,47,19,11,30,24,13,51,2,43,4,10,23,24,1,21,6,0,0,0,0,0,0,0,0,0,0,0,0,0,0,0,0,0,0,0,0,0,0,0,0,0,0,0,0,0,0,0,0],"split_type":[0,0,0,0,0,0,0,0,0,0,0,0,0,0,0,0,0,0,0,0,0,0,0,0,0,0,0,0,0,0,0,0,0,0,0,0,0,0,0,0,0,0,0,0,0,0,0,0,0,0,0,0,0,0,0,0,0,0,0,0,0,0,0],"sum_hessian":[3.499127E4,2.0094413E3,3.298183E4,1.7507179E3,2.5872342E2,1.8328541E4,1.4653286E4,1.5266821E3,2.2403577E2,1.6495796E2,9.376545E1,6.8996597E3,1.1428881E4,1.1580782E4,3.072504E3,1.2734166E3,2.5326544E2,2.0499242E2,1.904335E1,6.653328E1,9.8424675E1,5.690319E1,3.686226E1,2.1022146E3,4.7974453E3,8.787564E3,2.6413171E3,8.1446685E3,3.4361135E3,4.3683615E2,2.6356677E3,6.242423E0,1.2671742E3,1.6981703E2,8.34484E1,1.4253806E2,6.2454353E1,3.674678E0,1.5368672E1,1.354403E1,5.298925E1,1.9294771E1,7.9129906E1,1.4494844E1,4.2408348E1,8.913665E0,2.7948593E1,2.825931E2,1.8196216E3,3.1624668E3,1.6349785E3,6.487005E3,2.3005596E3,1.4072507E3,1.2340663E3,7.1848804E3,9.5978784E2,1.4004475E3,2.035666E3,2.2197571E2,2.1486044E2,7.262186E1,2.563046E3],"tree_param":{"num_deleted":"0","num_feature":"53","num_nodes":"63","size_leaf_vector":"0"}},{"base_weights":[2.524361E-2,-2.9336419E-2,6.8450294E-2,-3.423081E-4,-2.1588631E-1,1.4287016E-1,2.2151733E-2,-2.2531498E-2,1.4557943E-1,-3.3395082E-1,1.8679534E-1,9.551268E-2,2.904956E-1,3.1092316E-1,1.5739024E-3,-5.0898127E-2,9.893183E-2,8.742712E-2,3.2788327E-1,-3.688368E-1,-2.524444E-2,2.840196E-2,4.6901974E-1,3.1792867E-1,5.9983928E-2,3.8561398E-1,1.854154E-1,2.1616007E-1,6.107262E-1,4.145519E-2,-9.966605E-2,-7.3662825E-2,5.8558613E-2,6.721516E-2,2.4729146E-1,7.0854986E-1,7.5289145E-2,6.555733E-1,2.1821797E-1,1.562068E-1,-3.7775007E-1,-1.0623114E-1,4.436017E-1,-4.5440412E-1,1.3651046E-1,1.4702182E0,4.1753647E-1,1.2253878E-3,4.407127E-1,2.0527028E-1,2.1862084E-2,4.071707E-1,-5.0083723E-2,-5.7603687E-2,2.2668459E-1,2.4036333E-1,-4.0811276E-1,3.715666E-1,9.330608E-1,-6.106756E-2,1.1337343E-1,-3.6360465E-2,-2.1258211E-1],"categories":[],"categories_nodes":[],"categories_segments":[],"categories_sizes":[],"default_left":[1,1,1,1,1,1,1,1,1,1,1,1,1,1,1,1,1,1,1,1,1,1,1,1,1,1,1,1,1,1,1,0,0,0,0,0,0,0,0,0,0,0,0,0,0,0,0,0,0,0,0,0,0,0,0,0,0,0,0,0,0,0,0],"id":16,"left_children":[1,3,5,7,9,11,13,15,17,19,21,23,25,27,29,31,33,35,37,39,41,43,45,47,49,51,53,55,57,59,61,-1,-1,-1,-1,-1,-1,-1,-1,-1,-1,-1,-1,-1,-1,-1,-1,-1,-1,-1,-1,-1,-1,-1,-1,-1,-1,-1,-1,-1,-1,-1,-1],"loss_changes":[8.947932E1,9.0682175E1,7.296691E1,4.6989227E1,1.0728152E2,5.6755768E1,7.758792E1,4.340739E1,2.0278309E1,1.8775757E1,2.2872173E1,4.8586765E1,1.9641006E1,2.454351E1,4.9219994E1,2.5451487E1,1.1207043E1,1.090572E1,1.6491264E1,7.392807E0,6.8125024E0,1.723326E1,8.868961E0,3.2935455E1,2.9377508E1,9.7343445E0,9.43018E0,1.0092865E1,1.569178E1,6.448884E1,2.4618366E1,0E0,0E0,0E0,0E0,0E0,0E0,0E0,0E0,0E0,0E0,0E0,0E0,0E0,0E0,0E0,0E0,0E0,0E0,0E0,0E0,0E0,0E0,0E0,0E0,0E0,0E0,0E0,0E0,0E0,0E0,0E0,0E0],"parents":[2147483647,0,0,1,1,2,2,3,3,4,4,5,5,6,6,7,7,8,8,9,9,10,10,11,11,12,12,13,13,14,14,15,15,16,16,17,17,18,18,19,19,20,20,21,21,22,22,23,23,24,24,25,25,26,26,27,27,28,28,29,29,30,30],"right_children":[2,4,6,8,10,12,14,16,18,20,22,24,26,28,30,32,34,36,38,40,42,44,46,48,50,52,54,56,58,60,62,-1,-1,-1,-1,-1,-1,-1,-1,-1,-1,-1,-1,-1,-1,-1,-1,-1,-1,-1,-1,-1,-1,-1,-1,-1,-1,-1,-1,-1,-1,-1,-1],"split_conditions":[4.35E1,7.005594E1,4.572103E-1,1.103035E3,9.102757E-3,5.85E1,4.830863E1,5.6331898E1,7.09908E-1,1.7852625E0,-2.415985E0,1.3823381E-1,3.0114712E-2,1.3377288E-1,1.048854E3,8.653643E-1,8.587604E-1,-1.4522178E0,3.1138857E1,2.977482E-1,9.298593E1,1.0640589E1,7.939899E-2,8.3084273E-1,2.1429781E-3,1.3345269E3,2.2464138E-2,4.5639646E-1,2.5115523E-1,1.7997105E1,7.65E1,-7.3662825E-2,5.8558613E-2,6.721516E-2,2.4729146E-1,7.0854986E-1,7.5289145E-2,6.555733E-1,2.1821797E-1,1.562068E-1,-3.7775007E-1,-1.0623114E-1,4.436017E-1,-4.5440412E-1,1.3651046E-1,1.4702182E0,4.1753647E-1,1.2253878E-3,4.407127E-1,2.0527028E-1,2.1862084E-2,4.071707E-1,-5.0083723E-2,-5.7603687E-2,2.2668459E-1,2.4036333E-1,-4.0811276E-1,3.715666E-1,9.330608E-1,-6.106756E-2,1.1337343E-1,-3.6360465E-2,-2.1258211E-1],"split_indices":[52,49,13,1,36,52,3,19,9,39,12,21,17,22,1,2,2,2,47,34,47,27,45,39,15,1,23,24,46,6,52,0,0,0,0,0,0,0,0,0,0,0,0,0,0,0,0,0,0,0,0,0,0,0,0,0,0,0,0,0,0,0,0],"split_type":[0,0,0,0,0,0,0,0,0,0,0,0,0,0,0,0,0,0,0,0,0,0,0,0,0,0,0,0,0,0,0,0,0,0,0,0,0,0,0,0,0,0,0,0,0,0,0,0,0,0,0,0,0,0,0,0,0,0,0,0,0,0,0],"sum_hessian":[3.7941707E4,1.676454E4,2.1177168E4,1.4510308E4,2.2542312E3,8.1211777E3,1.3055989E4,1.2595807E4,1.9145013E3,1.7432798E3,5.1095142E2,6.149952E3,1.9712255E3,8.675423E2,1.2188447E4,1.021157E4,2.3842363E3,1.452617E3,4.6188437E2,1.5661042E3,1.7717552E2,3.2797946E2,1.8297194E2,8.459864E2,5.303966E3,1.0332552E3,9.3797015E2,6.60492E2,2.0705028E2,8.744379E3,3.444068E3,8.453704E3,1.7578658E3,1.9655002E3,4.1873608E2,2.6743195E1,1.4258738E3,1.14567665E2,3.473167E2,2.5866896E1,1.5402373E3,1.5173825E2,2.5437267E1,5.9418186E1,2.6856128E2,7.6008344E0,1.7537111E2,2.3663397E2,6.093525E2,1.101531E3,4.202435E3,9.84606E2,4.8649204E1,1.3610454E2,8.018656E2,6.364323E2,2.4059711E1,1.200963E2,8.695399E1,3.6051802E3,5.1391987E3,2.2076736E3,1.2363945E3],"tree_param":{"num_deleted":"0","num_feature":"53","num_nodes":"63","size_leaf_vector":"0"}},{"base_weights":[-3.918598E-2,1.4531007E-2,-4.0763968E-1,9.358256E-2,-1.13942996E-1,-2.5507614E-1,-4.287448E-1,3.4896635E-2,2.558537E-1,-2.4878469E-1,-3.4890927E-2,-1.0325047E-1,-3.647425E-1,-4.754843E-1,-3.318799E-1,5.759164E-2,-1.6821837E-1,2.989178E-1,5.263353E-3,-4.824909E-1,-2.2311944E-1,2.3370573E-1,-1.8977064E-1,-3.143258E-2,-4.8174772E-1,1.1388419E-1,-3.886047E-1,-3.7017444E-1,-4.9431348E-1,-1.3725986E-1,-4.0906414E-1,-1.0688419E-2,1.2779506E-1,-1.0568143E-1,-4.4184354E-1,1.3223785E-1,3.4592196E-1,3.1341475E-1,-1.7860055E-1,-5.088199E-1,-1.3527958E-1,-1.3689117E-1,-3.3582798E-1,-2.072858E-1,3.3562022E-1,-2.0953413E-2,-2.531221E-1,-8.567274E-2,9.3022096E-1,1.5653872E-1,-5.173857E-1,-2.1158083E-1,1.3257371E0,-3.9774394E-1,6.1293525E-1,7.742228E-1,-3.8025287E-1,4.01348E-1,-4.9563283E-1,1.0175803E0,-1.6951466E-1,-4.1793928E-1,-7.3651835E-2],"categories":[],"categories_nodes":[],"categories_segments":[],"categories_sizes":[],"default_left":[1,1,1,1,1,1,1,1,1,1,1,1,1,1,1,1,1,1,1,1,1,1,1,1,1,1,1,1,1,1,1,0,0,0,0,0,0,0,0,0,0,0,0,0,0,0,0,0,0,0,0,0,0,0,0,0,0,0,0,0,0,0,0],"id":17,"left_children":[1,3,5,7,9,11,13,15,17,19,21,23,25,27,29,31,33,35,37,39,41,43,45,47,49,51,53,55,57,59,61,-1,-1,-1,-1,-1,-1,-1,-1,-1,-1,-1,-1,-1,-1,-1,-1,-1,-1,-1,-1,-1,-1,-1,-1,-1,-1,-1,-1,-1,-1,-1,-1],"loss_changes":[4.6739502E2,2.0933748E2,9.565643E0,1.2150799E2,8.3686485E1,6.083359E0,1.1786224E1,4.321339E1,3.6570328E1,1.7297165E1,2.0600594E2,4.2137523E0,2.4775562E0,3.340973E0,1.2891884E1,4.041593E1,1.6076313E1,2.2611755E1,2.8271982E1,2.5481567E0,2.5382324E1,8.147065E1,3.3584885E1,6.9560127E0,6.437893E-1,4.5760193E0,2.1033955E0,3.4493675E0,1.9769592E0,9.346073E0,1.8049927E0,0E0,0E0,0E0,0E0,0E0,0E0,0E0,0E0,0E0,0E0,0E0,0E0,0E0,0E0,0E0,0E0,0E0,0E0,0E0,0E0,0E0,0E0,0E0,0E0,0E0,0E0,0E0,0E0,0E0,0E0,0E0,0E0],"parents":[2147483647,0,0,1,1,2,2,3,3,4,4,5,5,6,6,7,7,8,8,9,9,10,10,11,11,12,12,13,13,14,14,15,15,16,16,17,17,18,18,19,19,20,20,21,21,22,22,23,23,24,24,25,25,26,26,27,27,28,28,29,29,30,30],"right_children":[2,4,6,8,10,12,14,16,18,20,22,24,26,28,30,32,34,36,38,40,42,44,46,48,50,52,54,56,58,60,62,-1,-1,-1,-1,-1,-1,-1,-1,-1,-1,-1,-1,-1,-1,-1,-1,-1,-1,-1,-1,-1,-1,-1,-1,-1,-1,-1,-1,-1,-1,-1,-1],"split_conditions":[7.091542E-3,4.75E1,7.471765E-3,7.88619E1,7.536393E1,4.2364158E-2,1.0427053E3,6.2998803E-3,1.0982446E3,9.6034106E2,8.235747E1,1.3228894E0,-1.2837574E0,8.475098E1,3.5535562E-1,3.0871954E0,3.5656297E0,1.00408276E3,8.277666E1,6.940464E1,1.0362979E3,9.9567114E2,8.1407364E1,2.728897E1,7.835828E0,9.089302E0,9.5619744E-1,1.8139508E-1,7.512219E-3,7.098906E-2,2.3423758E2,-1.0688419E-2,1.2779506E-1,-1.0568143E-1,-4.4184354E-1,1.3223785E-1,3.4592196E-1,3.1341475E-1,-1.7860055E-1,-5.088199E-1,-1.3527958E-1,-1.3689117E-1,-3.3582798E-1,-2.072858E-1,3.3562022E-1,-2.0953413E-2,-2.531221E-1,-8.567274E-2,9.3022096E-1,1.5653872E-1,-5.173857E-1,-2.1158083E-1,1.3257371E0,-3.9774394E-1,6.1293525E-1,7.742228E-1,-3.8025287E-1,4.01348E-1,-4.9563283E-1,1.0175803E0,-1.6951466E-1,-4.1793928E-1,-7.3651835E-2],"split_indices":[36,52,36,48,50,35,1,15,1,1,3,9,2,49,33,7,18,1,47,49,1,1,50,5,27,7,51,33,15,11,49,0,0,0,0,0,0,0,0,0,0,0,0,0,0,0,0,0,0,0,0,0,0,0,0,0,0,0,0,0,0,0,0],"split_type":[0,0,0,0,0,0,0,0,0,0,0,0,0,0,0,0,0,0,0,0,0,0,0,0,0,0,0,0,0,0,0,0,0,0,0,0,0,0,0,0,0,0,0,0,0,0,0,0,0,0,0,0,0,0,0,0,0,0,0,0,0,0,0],"sum_hessian":[2.3613785E4,2.0610006E4,3.003779E3,1.275932E4,7.850687E3,3.666251E2,2.637154E3,9.371353E3,3.3879675E3,2.9007078E3,4.949979E3,1.5457202E2,2.1205309E2,1.7761918E3,8.609622E2,8.43013E3,9.4122205E2,2.890961E3,4.970064E2,2.8526874E2,2.615439E3,1.8101895E3,3.1397896E3,1.3083063E2,2.3741386E1,9.890841E0,2.0216225E2,2.7254282E2,1.503649E3,2.4527629E2,6.15686E2,4.2740366E3,4.1560938E3,7.6725287E2,1.739692E2,6.367643E2,2.2541968E3,1.8546574E2,3.1154065E2,2.6472894E2,2.0539783E1,1.4830435E3,1.1323956E3,3.396153E2,1.4705742E3,8.5711194E2,2.2826775E3,1.2470766E2,6.122977E0,1.0760784E0,2.266531E1,8.4475155E0,1.4433256E0,2.0093158E2,1.2306683E0,1.7173668E0,2.7082544E2,1.7656852E0,1.5018833E3,5.834421E0,2.3944186E2,5.9957495E2,1.6111023E1],"tree_param":{"num_deleted":"0","num_feature":"53","num_nodes":"63","size_leaf_vector":"0"}},{"base_weights":[-1.2947459E-2,3.7503153E-2,-3.2994807E-1,-1.8332526E-2,2.8701228E-1,-1.9354548E-1,-4.2815837E-1,-4.07335E-1,7.543465E-3,3.5700428E-1,-2.0697547E-2,-3.7743032E-1,-5.9489302E-2,-4.790154E-1,-3.5370213E-1,2.0877443E-1,-4.467876E-1,4.380829E-2,-1.198439E-1,4.4824922E-1,2.7154025E-1,2.9073793E-1,-2.6271906E-1,-4.7067687E-1,-2.3553284E-1,1.2717979E-1,-1.9301616E-1,-2.9620492E-1,-4.9324384E-1,-2.0432845E-1,-4.2137808E-1,1.6223356E0,9.92119E-2,-5.0689393E-1,-3.6856288E-1,1.1185662E-1,-1.431182E-1,-1.9776225E-1,1.052832E-1,2.8734145E-1,4.742312E-1,3.6812904E-1,1.01949E-1,3.4435442E-1,-5.2693176E-1,6.260034E-2,-4.056404E-1,6.9854325E-1,-4.7642595E-1,-6.305406E-2,-3.8147923E-1,7.4418046E-2,1.5941305E0,-3.4840536E-1,-4.0462933E-2,-3.448707E-2,-4.6647426E-1,2.424323E-1,-4.9421966E-1,-2.4455713E-1,3.3802113E-1,-4.2654207E-1,2.0199564E-1],"categories":[],"categories_nodes":[],"categories_segments":[],"categories_sizes":[],"default_left":[1,1,1,1,1,1,1,1,1,1,1,1,1,1,1,1,1,1,1,1,1,1,1,1,1,1,1,1,1,1,1,0,0,0,0,0,0,0,0,0,0,0,0,0,0,0,0,0,0,0,0,0,0,0,0,0,0,0,0,0,0,0,0],"id":18,"left_children":[1,3,5,7,9,11,13,15,17,19,21,23,25,27,29,31,33,35,37,39,41,43,45,47,49,51,53,55,57,59,61,-1,-1,-1,-1,-1,-1,-1,-1,-1,-1,-1,-1,-1,-1,-1,-1,-1,-1,-1,-1,-1,-1,-1,-1,-1,-1,-1,-1,-1,-1,-1,-1],"loss_changes":[3.6940997E2,2.776221E2,4.2401367E1,1.6391776E2,7.848859E1,3.2748024E1,6.809326E0,2.478128E1,7.054596E1,2.3029205E1,5.1045235E1,7.303131E0,1.9218323E1,2.69487E0,7.513672E0,9.411124E0,4.3027496E0,1.5121451E2,5.938078E1,5.8600464E0,2.5114601E1,1.3165968E1,1.77417E1,2.5989685E0,5.6196966E0,2.4782621E1,1.0637192E1,3.6101203E0,8.461914E-1,5.2392855E0,1.7486267E0,0E0,0E0,0E0,0E0,0E0,0E0,0E0,0E0,0E0,0E0,0E0,0E0,0E0,0E0,0E0,0E0,0E0,0E0,0E0,0E0,0E0,0E0,0E0,0E0,0E0,0E0,0E0,0E0,0E0,0E0,0E0,0E0],"parents":[2147483647,0,0,1,1,2,2,3,3,4,4,5,5,6,6,7,7,8,8,9,9,10,10,11,11,12,12,13,13,14,14,15,15,16,16,17,17,18,18,19,19,20,20,21,21,22,22,23,23,24,24,25,25,26,26,27,27,28,28,29,29,30,30],"right_children":[2,4,6,8,10,12,14,16,18,20,22,24,26,28,30,32,34,36,38,40,42,44,46,48,50,52,54,56,58,60,62,-1,-1,-1,-1,-1,-1,-1,-1,-1,-1,-1,-1,-1,-1,-1,-1,-1,-1,-1,-1,-1,-1,-1,-1,-1,-1,-1,-1,-1,-1,-1,-1],"split_conditions":[8.962251E-3,7.37241E0,1.0053437E-2,9.5251245E2,8.533571E0,8.308563E1,1.0292136E3,9.910779E-1,7.627992E1,5.845234E-3,4.55E1,1.011207E3,5.15E1,1.1756323E-2,3.5044807E-1,5.774881E-1,9.1717926E2,1.063761E3,1.0983953E3,8.9210686E1,6.788834E-1,1.1149814E3,9.417076E1,3.9762232E-2,5.3731415E1,5.8331944E-2,7.71942E1,5.25E1,3.9888132E-2,4.4870163E1,2.4719641E2,1.6223356E0,9.92119E-2,-5.0689393E-1,-3.6856288E-1,1.1185662E-1,-1.431182E-1,-1.9776225E-1,1.052832E-1,2.8734145E-1,4.742312E-1,3.6812904E-1,1.01949E-1,3.4435442E-1,-5.2693176E-1,6.260034E-2,-4.056404E-1,6.9854325E-1,-4.7642595E-1,-6.305406E-2,-3.8147923E-1,7.4418046E-2,1.5941305E0,-3.4840536E-1,-4.0462933E-2,-3.448707E-2,-4.6647426E-1,2.424323E-1,-4.9421966E-1,-2.4455713E-1,3.3802113E-1,-4.2654207E-1,2.0199564E-1],"split_indices":[15,29,36,1,7,49,1,19,49,17,52,1,52,15,33,32,1,1,1,50,11,1,47,16,49,14,4,52,33,29,26,0,0,0,0,0,0,0,0,0,0,0,0,0,0,0,0,0,0,0,0,0,0,0,0,0,0,0,0,0,0,0,0],"split_type":[0,0,0,0,0,0,0,0,0,0,0,0,0,0,0,0,0,0,0,0,0,0,0,0,0,0,0,0,0,0,0,0,0,0,0,0,0,0,0,0,0,0,0,0,0,0,0,0,0,0,0,0,0,0,0,0,0,0,0,0,0,0,0],"sum_hessian":[2.3096637E4,1.9926258E4,3.1703796E3,1.6283277E4,3.6429795E3,1.3283824E3,1.8419973E3,1.0146694E3,1.5268608E4,2.9677678E3,6.7521185E2,5.5933167E2,7.690507E2,1.0912142E3,7.507831E2,6.080585E1,9.538635E2,1.1885643E4,3.382966E3,1.4332869E3,1.5344808E3,2.9517575E2,3.800361E2,3.3613004E2,2.2320166E2,3.2072632E2,4.483244E2,8.037347E1,1.01084076E3,2.3534695E2,5.1543616E2,3.3807304E0,5.742512E1,5.363007E2,4.1756284E2,8.713866E3,3.171776E3,2.5132358E3,8.6973016E2,2.009365E2,1.2323505E3,9.769176E2,5.5756323E2,2.775547E2,1.762104E1,1.1617012E2,2.6386597E2,1.0550411E0,3.35075E2,1.0295818E2,1.2024347E2,3.1060553E2,1.0120804E1,2.214618E2,2.2686261E2,3.2153484E1,4.8219982E1,1.0112456E0,1.0098295E3,2.1960674E2,1.5740212E1,5.1151456E2,3.9216046E0],"tree_param":{"num_deleted":"0","num_feature":"53","num_nodes":"63","size_leaf_vector":"0"}},{"base_weights":[-7.23089E-3,-2.2167386E-1,6.2246427E-2,3.719858E-2,-3.146716E-1,9.270199E-2,-1.2624384E-1,-1.6926335E-1,1.0913412E-1,-4.1905233E-1,-2.4247977E-1,-4.1893303E-2,1.4600132E-1,-2.6403126E-1,7.022421E-2,-1.0672867E-1,-5.244367E-1,-1.478342E-1,1.614275E-1,-2.0591305E-1,-4.3323866E-1,-3.2400778E-1,-1.8335864E-1,-1.0182745E-2,-5.12614E-1,2.1370012E-1,6.713713E-2,-3.7853497E-1,-1.8771946E-1,3.466164E-1,-1.7762527E-2,-5.1731956E-1,-7.635759E-2,-6.4296305E-1,-1.5522374E-1,-2.5628492E-1,1.7507863E-1,2.234358E-1,-7.75211E-2,-2.482449E-1,6.283896E-1,-4.3698165E-1,1.6446412E-1,-2.6054588E-1,-4.023485E-1,1.2932412E-1,-2.1807688E-1,-1.14131525E-1,1.7666657E-1,-7.0133376E-1,-3.4598452E-1,-3.7291996E-2,2.4414629E-1,-9.703211E-2,1.9433852E-1,-3.9782196E-1,2.4759077E-1,-3.2709036E-2,-2.7166975E-1,2.585042E-1,5.719475E-1,-6.019489E-1,1.5749352E-3],"categories":[],"categories_nodes":[],"categories_segments":[],"categories_sizes":[],"default_left":[1,1,1,1,1,1,1,1,1,1,1,1,1,1,1,1,1,1,1,1,1,1,1,1,1,1,1,1,1,1,1,0,0,0,0,0,0,0,0,0,0,0,0,0,0,0,0,0,0,0,0,0,0,0,0,0,0,0,0,0,0,0,0],"id":19,"left_children":[1,3,5,7,9,11,13,15,17,19,21,23,25,27,29,31,33,35,37,39,41,43,45,47,49,51,53,55,57,59,61,-1,-1,-1,-1,-1,-1,-1,-1,-1,-1,-1,-1,-1,-1,-1,-1,-1,-1,-1,-1,-1,-1,-1,-1,-1,-1,-1,-1,-1,-1,-1,-1],"loss_changes":[4.1013962E2,1.6218564E2,1.1936913E2,2.6473883E1,3.7244415E1,1.2841995E2,7.8323425E1,1.017555E1,1.7783405E1,6.0334473E0,1.4073578E1,7.580039E1,6.844681E1,1.4787125E1,2.9022924E1,4.860611E0,2.9070148E0,7.88922E0,1.6295374E1,4.686214E0,4.3172913E0,6.0162964E0,1.850404E1,9.245268E1,9.836021E0,5.273242E1,1.23736145E2,8.29879E0,1.3295258E1,5.5735245E0,1.0235897E1,0E0,0E0,0E0,0E0,0E0,0E0,0E0,0E0,0E0,0E0,0E0,0E0,0E0,0E0,0E0,0E0,0E0,0E0,0E0,0E0,0E0,0E0,0E0,0E0,0E0,0E0,0E0,0E0,0E0,0E0,0E0,0E0],"parents":[2147483647,0,0,1,1,2,2,3,3,4,4,5,5,6,6,7,7,8,8,9,9,10,10,11,11,12,12,13,13,14,14,15,15,16,16,17,17,18,18,19,19,20,20,21,21,22,22,23,23,24,24,25,25,26,26,27,27,28,28,29,29,30,30],"right_children":[2,4,6,8,10,12,14,16,18,20,22,24,26,28,30,32,34,36,38,40,42,44,46,48,50,52,54,56,58,60,62,-1,-1,-1,-1,-1,-1,-1,-1,-1,-1,-1,-1,-1,-1,-1,-1,-1,-1,-1,-1,-1,-1,-1,-1,-1,-1,-1,-1,-1,-1,-1,-1],"split_conditions":[5.959964E1,9.6102795E2,1.6755478E0,8.4405566E2,2.1439627E-2,7.7937025E-1,3.5706863E-2,5.2026056E-2,2.4755888E-3,9.7506946E2,4.258914E0,3.2819237E1,1.8942371E1,1.8802474E0,3.1781173E-1,7.706172E0,2.3046225E-1,4.4788656E-1,5.1584457E1,8.3741903E-1,1.6521682E3,8.754874E1,2.1647755E-2,1.1395712E2,2.8370102E1,7.1196686E1,1.497477E2,1.6866257E2,3.1428635E-1,4.13553E0,7.738273E2,-5.1731956E-1,-7.635759E-2,-6.4296305E-1,-1.5522374E-1,-2.5628492E-1,1.7507863E-1,2.234358E-1,-7.75211E-2,-2.482449E-1,6.283896E-1,-4.3698165E-1,1.6446412E-1,-2.6054588E-1,-4.023485E-1,1.2932412E-1,-2.1807688E-1,-1.14131525E-1,1.7666657E-1,-7.0133376E-1,-3.4598452E-1,-3.7291996E-2,2.4414629E-1,-9.703211E-2,1.9433852E-1,-3.9782196E-1,2.4759077E-1,-3.2709036E-2,-2.7166975E-1,2.585042E-1,5.719475E-1,-6.019489E-1,1.5749352E-3],"split_indices":[49,1,39,1,14,19,17,14,15,1,19,7,28,19,45,5,46,34,49,32,1,47,44,4,6,48,3,47,45,19,1,0,0,0,0,0,0,0,0,0,0,0,0,0,0,0,0,0,0,0,0,0,0,0,0,0,0,0,0,0,0,0,0],"split_type":[0,0,0,0,0,0,0,0,0,0,0,0,0,0,0,0,0,0,0,0,0,0,0,0,0,0,0,0,0,0,0,0,0,0,0,0,0,0,0,0,0,0,0,0,0,0,0,0,0,0,0,0,0,0,0,0,0,0,0,0,0,0,0],"sum_hessian":[2.7526213E4,6.735324E3,2.0790889E4,1.7802751E3,4.9550493E3,1.7899295E4,2.8915935E3,4.596584E2,1.3206168E3,2.0239113E3,2.931138E3,5.0774844E3,1.2821812E4,1.6994133E3,1.1921803E3,3.9194916E2,6.770923E1,2.2299548E2,1.0976213E3,1.2727102E2,1.8966403E3,1.2302054E3,1.7009326E3,4.75798E3,3.195043E2,6.898378E3,5.923433E3,6.7805304E2,1.0213603E3,2.871665E2,9.0501373E2,2.589106E1,3.660581E2,5.069383E1,1.7015402E1,1.6708582E2,5.5909668E1,8.7152203E2,2.2609927E2,1.21793755E2,5.477263E0,1.885104E3,1.1536255E1,6.8203296E2,5.481724E2,1.6971397E2,1.5312186E3,3.057441E3,1.700539E3,1.4831647E2,1.7118782E2,7.4624634E2,6.152132E3,2.5860503E3,3.3373828E3,6.581444E2,1.9908642E1,3.593065E2,6.6205383E2,2.0798462E2,7.918189E1,2.8032125E1,8.769816E2],"tree_param":{"num_deleted":"0","num_feature":"53","num_nodes":"63","size_leaf_vector":"0"}},{"base_weights":[8.138823E-3,-1.471295E-1,2.3810672E-2,-8.295215E-2,-3.9083922E-1,-8.254278E-3,1.0362342E-1,-1.9745784E-1,-1.0051707E-2,-4.5278376E-1,2.0552851E-2,6.273037E-2,-4.3113653E-2,8.762215E-2,3.0145466E-1,-2.2107126E-1,3.9402056E-1,6.4203195E-2,-1.7091459E-1,3.3708236E-1,-4.5733643E-1,-4.8033938E-2,1.6587968E0,8.322002E-2,-1.7839746E-1,-9.638234E-2,6.5290645E-2,-1.0093491E-1,1.0456125E-1,-1.328179E-2,3.4718347E-1,-7.2071957E-3,-2.7814206E-1,1.6179186E0,8.291127E-2,-7.116351E-2,1.7052802E-1,-1.9112395E-1,5.588392E-1,-3.441525E-1,7.4780476E-1,-4.7174868E-1,-2.0614706E-1,5.2026147E-1,-2.2734259E-1,2.1865911E0,4.6887878E-1,2.3388632E-1,4.91315E-2,1.373274E-1,-2.7087533E-1,-1.6844952E-1,-5.5468015E-2,-1.7197303E-1,8.630472E-2,-2.4514462E-1,1.25129735E-2,2.427562E-1,7.61186E-2,3.249365E-1,-2.3126145E-1,5.976442E-1,2.322521E-1],"categories":[],"categories_nodes":[],"categories_segments":[],"categories_sizes":[],"default_left":[1,1,1,1,1,1,1,1,1,1,1,1,1,1,1,1,1,1,1,1,1,1,1,1,1,1,1,1,1,1,1,0,0,0,0,0,0,0,0,0,0,0,0,0,0,0,0,0,0,0,0,0,0,0,0,0,0,0,0,0,0,0,0],"id":20,"left_children":[1,3,5,7,9,11,13,15,17,19,21,23,25,27,29,31,33,35,37,39,41,43,45,47,49,51,53,55,57,59,61,-1,-1,-1,-1,-1,-1,-1,-1,-1,-1,-1,-1,-1,-1,-1,-1,-1,-1,-1,-1,-1,-1,-1,-1,-1,-1,-1,-1,-1,-1,-1,-1],"loss_changes":[7.911536E1,4.6589417E1,7.557837E1,1.9704395E1,1.5836212E1,5.2136784E1,2.676712E1,1.2912441E1,1.7253109E1,2.0953827E0,9.319646E0,3.429937E1,8.160295E1,2.502628E1,9.11459E0,1.0783398E1,1.3425661E1,1.4236948E1,6.834077E0,1.2840353E0,1.8473816E0,8.260253E0,1.0677395E0,3.284093E1,1.5914791E1,2.7928596E1,2.3230742E1,1.0573664E1,2.8231033E1,6.06613E0,1.5771248E1,0E0,0E0,0E0,0E0,0E0,0E0,0E0,0E0,0E0,0E0,0E0,0E0,0E0,0E0,0E0,0E0,0E0,0E0,0E0,0E0,0E0,0E0,0E0,0E0,0E0,0E0,0E0,0E0,0E0,0E0,0E0,0E0],"parents":[2147483647,0,0,1,1,2,2,3,3,4,4,5,5,6,6,7,7,8,8,9,9,10,10,11,11,12,12,13,13,14,14,15,15,16,16,17,17,18,18,19,19,20,20,21,21,22,22,23,23,24,24,25,25,26,26,27,27,28,28,29,29,30,30],"right_children":[2,4,6,8,10,12,14,16,18,20,22,24,26,28,30,32,34,36,38,40,42,44,46,48,50,52,54,56,58,60,62,-1,-1,-1,-1,-1,-1,-1,-1,-1,-1,-1,-1,-1,-1,-1,-1,-1,-1,-1,-1,-1,-1,-1,-1,-1,-1,-1,-1,-1,-1,-1,-1],"split_conditions":[4.6973878E-1,4.985323E0,8.407431E-1,2.75E1,9.052959E0,-3.4317894E0,4.4864276E-1,2.0715666E1,2.768086E-2,6.919829E1,1.7398988E0,8.347984E-2,8.620985E0,3.8921738E0,1.2555358E-2,9.7019836E2,7.034748E-2,1.02344434E3,3.0636E0,6.4556813E-3,1.2234937E3,2.6494268E-2,1.1215945E3,-3.8619437E0,3.760201E-1,4.509644E-1,1.765193E-1,3.922608E-1,5.5001788E-2,8.763621E-1,2.5332597E-1,-7.2071957E-3,-2.7814206E-1,1.6179186E0,8.291127E-2,-7.116351E-2,1.7052802E-1,-1.9112395E-1,5.588392E-1,-3.441525E-1,7.4780476E-1,-4.7174868E-1,-2.0614706E-1,5.2026147E-1,-2.2734259E-1,2.1865911E0,4.6887878E-1,2.3388632E-1,4.91315E-2,1.373274E-1,-2.7087533E-1,-1.6844952E-1,-5.5468015E-2,-1.7197303E-1,8.630472E-2,-2.4514462E-1,1.25129735E-2,2.427562E-1,7.61186E-2,3.249365E-1,-2.3126145E-1,5.976442E-1,2.322521E-1],"split_indices":[9,7,10,52,7,12,24,48,23,3,39,23,19,48,23,1,30,1,40,36,1,22,1,12,11,13,21,24,29,10,21,0,0,0,0,0,0,0,0,0,0,0,0,0,0,0,0,0,0,0,0,0,0,0,0,0,0,0,0,0,0,0,0],"split_type":[0,0,0,0,0,0,0,0,0,0,0,0,0,0,0,0,0,0,0,0,0,0,0,0,0,0,0,0,0,0,0,0,0,0,0,0,0,0,0,0,0,0,0,0,0,0,0,0,0,0,0,0,0,0,0,0,0,0,0,0,0,0,0],"sum_hessian":[3.2510602E4,2.979813E3,2.953079E4,2.3597483E3,6.2006464E2,2.1067693E4,8.463096E3,9.172706E2,1.4424777E3,5.388306E2,8.123401E1,6.9383105E3,1.4129383E4,7.83113E3,6.3196606E2,8.8265875E2,3.4611904E1,9.8732544E2,4.5515222E2,2.6693437E0,5.361613E2,7.89014E1,2.3326097E0,6.395512E3,5.427986E2,9.47405E3,4.655333E3,6.4511334E2,7.1860166E3,8.026156E1,5.5170447E2,1.86164E2,6.9649475E2,6.1636677E0,2.8448236E1,4.3448923E2,5.5283624E2,4.4360538E2,1.1546844E1,1.064995E0,1.6043487E0,5.0623734E2,2.992396E1,1.8467997E1,6.04334E1,1.0356455E0,1.2969642E0,1.178934E3,5.216578E3,1.2286054E2,4.1993805E2,3.4297363E3,6.044313E3,3.7818414E2,4.277149E3,2.835354E2,3.6157794E2,1.2252638E3,5.960753E3,3.1263025E1,4.8998535E1,1.7221344E2,3.7949103E2],"tree_param":{"num_deleted":"0","num_feature":"53","num_nodes":"63","size_leaf_vector":"0"}},{"base_weights":[1.602202E-2,9.83039E-2,-4.8387963E-3,2.2071512E-1,7.253433E-2,-3.7805766E-2,9.206477E-2,2.4571137E-1,-1.8574886E-1,5.1268216E-2,1.5555045E-1,-1.2631744E-1,-2.5162293E-2,7.027685E-2,1.912356E-1,1.853153E-1,3.6533093E-1,-5.306801E-1,1.2743244E-1,4.659997E-2,6.3010794E-1,1.6147472E-1,-9.883162E-1,-1.6268535E-1,1.7884146E-1,3.422415E-2,-4.804304E-2,-2.7169245E-3,1.0136557E-1,1.678888E-1,5.7657117E-1,2.3175089E-1,4.606494E-2,7.974151E-2,4.362395E-1,8.22394E-1,-6.337579E-1,3.7935382E-1,-2.5567192E-1,1.4404956E-1,2.0404799E-2,8.5270274E-1,-3.3741045E-1,1.7862229E-1,-2.3459305E-1,-1.5458467E0,-5.097136E-1,-5.1792778E-2,-2.4044357E-1,4.885534E-1,-1.38469655E-2,-1.4194147E-1,5.3088207E-2,-5.1150452E-2,4.049141E-1,-4.8901394E-2,1.2722372E-1,-4.0810245E-1,1.0787006E-1,1.5779234E-1,1.0070847E0,6.579073E-1,-5.612911E-1],"categories":[],"categories_nodes":[],"categories_segments":[],"categories_sizes":[],"default_left":[1,1,1,1,1,1,1,1,1,1,1,1,1,1,1,1,1,1,1,1,1,1,1,1,1,1,1,1,1,1,1,0,0,0,0,0,0,0,0,0,0,0,0,0,0,0,0,0,0,0,0,0,0,0,0,0,0,0,0,0,0,0,0],"id":21,"left_children":[1,3,5,7,9,11,13,15,17,19,21,23,25,27,29,31,33,35,37,39,41,43,45,47,49,51,53,55,57,59,61,-1,-1,-1,-1,-1,-1,-1,-1,-1,-1,-1,-1,-1,-1,-1,-1,-1,-1,-1,-1,-1,-1,-1,-1,-1,-1,-1,-1,-1,-1,-1,-1],"loss_changes":[6.3704872E1,2.3662697E1,9.45907E1,1.3303654E1,1.0942013E1,2.472111E1,1.622704E1,8.816658E0,8.295799E0,1.3316864E1,8.727655E0,3.0672718E1,2.6271324E1,1.3987959E1,1.2077873E1,5.2863426E0,8.299526E0,5.6036253E0,4.0277305E0,1.250699E1,8.780476E0,8.590553E0,9.87865E-1,2.1265907E1,1.7582195E1,1.7878347E1,1.9664574E1,1.106107E1,1.4369122E1,1.0664314E1,7.486189E0,0E0,0E0,0E0,0E0,0E0,0E0,0E0,0E0,0E0,0E0,0E0,0E0,0E0,0E0,0E0,0E0,0E0,0E0,0E0,0E0,0E0,0E0,0E0,0E0,0E0,0E0,0E0,0E0,0E0,0E0,0E0,0E0],"parents":[2147483647,0,0,1,1,2,2,3,3,4,4,5,5,6,6,7,7,8,8,9,9,10,10,11,11,12,12,13,13,14,14,15,15,16,16,17,17,18,18,19,19,20,20,21,21,22,22,23,23,24,24,25,25,26,26,27,27,28,28,29,29,30,30],"right_children":[2,4,6,8,10,12,14,16,18,20,22,24,26,28,30,32,34,36,38,40,42,44,46,48,50,52,54,56,58,60,62,-1,-1,-1,-1,-1,-1,-1,-1,-1,-1,-1,-1,-1,-1,-1,-1,-1,-1,-1,-1,-1,-1,-1,-1,-1,-1,-1,-1,-1,-1,-1,-1],"split_conditions":[-7.06879E-1,-1.4065874E0,7.252323E-1,8.6791515E-1,2.6961535E-1,2.0826739E-1,1.4166282E0,5.35E1,1.5039072E1,3.7033607E1,3.1248504E-1,1.4848407E2,1.9039493E-2,3.75E1,1.1117014E3,3.1950397E1,6.1984396E-1,1.4291266E1,1.3044772E0,3.9405292E-1,1.4338061E-1,1.005E2,3.4092678E1,4.0290433E-1,2.9674593E-1,4.0126908E-1,1.8587553E2,3.3773804E-1,1.6769606E-1,1.8269336E2,1.6927157E-2,2.3175089E-1,4.606494E-2,7.974151E-2,4.362395E-1,8.22394E-1,-6.337579E-1,3.7935382E-1,-2.5567192E-1,1.4404956E-1,2.0404799E-2,8.5270274E-1,-3.3741045E-1,1.7862229E-1,-2.3459305E-1,-1.5458467E0,-5.097136E-1,-5.1792778E-2,-2.4044357E-1,4.885534E-1,-1.38469655E-2,-1.4194147E-1,5.3088207E-2,-5.1150452E-2,4.049141E-1,-4.8901394E-2,1.2722372E-1,-4.0810245E-1,1.0787006E-1,1.5779234E-1,1.0070847E0,6.579073E-1,-5.612911E-1],"split_indices":[2,2,2,33,21,45,2,52,5,29,46,49,17,52,1,49,10,49,9,13,16,52,3,13,19,11,51,25,11,50,38,0,0,0,0,0,0,0,0,0,0,0,0,0,0,0,0,0,0,0,0,0,0,0,0,0,0,0,0,0,0,0,0],"split_type":[0,0,0,0,0,0,0,0,0,0,0,0,0,0,0,0,0,0,0,0,0,0,0,0,0,0,0,0,0,0,0,0,0,0,0,0,0,0,0,0,0,0,0,0,0,0,0,0,0,0,0,0,0,0,0,0,0,0,0,0,0,0,0],"sum_hessian":[3.7112676E4,7.505362E3,2.9607312E4,1.3039136E3,6.2014478E3,2.2092104E4,7.51521E3,1.2287452E3,7.5168434E1,4.938084E3,1.263364E3,2.760188E3,1.9331914E4,6.16292E3,1.3522899E3,8.1818945E2,4.1055576E2,3.5440514E1,3.9727917E1,4.8996494E3,3.843435E1,1.257709E3,5.6550508E0,2.4666833E3,2.9350485E2,5.376594E3,1.395532E4,1.8410942E3,4.3218257E3,1.2763914E3,7.5898605E1,6.130818E2,2.0510767E2,8.2083435E1,3.2847232E2,2.0147707E0,3.3425743E1,2.3973341E1,1.5754576E1,1.0370785E3,3.862571E3,3.1342192E1,7.092158E0,1.2060428E3,5.1666054E1,1.5821111E0,4.0729394E0,1.01740607E3,1.4492772E3,1.1198065E2,1.8152419E2,5.194148E2,4.857179E3,1.3861116E4,9.420404E1,1.3587727E3,4.8232147E2,5.370375E1,4.268122E3,1.2623914E3,1.3999947E1,7.122886E1,4.6697426E0],"tree_param":{"num_deleted":"0","num_feature":"53","num_nodes":"63","size_leaf_vector":"0"}},{"base_weights":[-3.1635493E-2,-5.112534E-4,-3.4278268E-1,-1.4205438E-1,3.7488002E-2,-4.3273324E-1,-2.4962993E-1,-7.4635215E-2,-2.8307965E-1,8.9400984E-2,-1.013663E-1,-2.0303072E-1,-4.7340706E-1,5.5435814E-2,-2.825597E-1,-4.4779247E-1,-5.7284582E-2,-4.4050747E-1,-2.1992525E-1,5.6588706E-2,1.8287027E-1,-1.4877771E-2,-1.8975928E-1,8.9748454E-1,-2.3701692E-1,6.458319E-2,-4.7809052E-1,2.7265483E-1,-3.4807885E-1,-1.6637276E-1,-3.596615E-1,-4.633227E-1,3.921273E-1,5.3212013E-2,-1.0769942E-1,3.216858E-2,-4.6401292E-1,-1.6898522E-1,-3.7351754E-1,-1.1805831E-1,1.1404032E-1,2.3551746E-1,-1.061485E-3,-6.693905E-2,2.7434707E-1,-1.2148348E-1,-3.891259E-1,-3.3886975E-1,1.7463231E0,-2.6470318E-1,5.270375E-1,5.7554764E-1,-4.0257478E-1,-4.827651E-1,-6.972431E-2,-4.9240133E-1,4.746222E-1,5.021261E-1,-4.9223223E-1,-2.188634E-1,5.6820935E-1,-9.0867357E-4,-3.830779E-1],"categories":[],"categories_nodes":[],"categories_segments":[],"categories_sizes":[],"default_left":[1,1,1,1,1,1,1,1,1,1,1,1,1,1,1,1,1,1,1,1,1,1,1,1,1,1,1,1,1,1,1,0,0,0,0,0,0,0,0,0,0,0,0,0,0,0,0,0,0,0,0,0,0,0,0,0,0,0,0,0,0,0,0],"id":22,"left_children":[1,3,5,7,9,11,13,15,17,19,21,23,25,27,29,31,33,35,37,39,41,43,45,47,49,51,53,55,57,59,61,-1,-1,-1,-1,-1,-1,-1,-1,-1,-1,-1,-1,-1,-1,-1,-1,-1,-1,-1,-1,-1,-1,-1,-1,-1,-1,-1,-1,-1,-1,-1,-1],"loss_changes":[1.9986018E2,1.0091769E2,1.5616928E1,3.7735374E1,1.0663449E2,8.811249E0,9.300869E0,1.7378174E1,1.26695175E1,3.301198E1,3.0774036E1,5.6425147E0,2.0698547E0,8.061221E0,7.414955E0,1.7376652E0,1.4321036E1,4.08844E0,7.122574E0,7.9992035E1,2.7087273E1,3.067355E1,2.7052368E1,5.375077E0,3.1352024E0,2.10904E0,1.4979553E0,9.449468E0,4.1989937E0,1.3029964E1,4.2059174E0,0E0,0E0,0E0,0E0,0E0,0E0,0E0,0E0,0E0,0E0,0E0,0E0,0E0,0E0,0E0,0E0,0E0,0E0,0E0,0E0,0E0,0E0,0E0,0E0,0E0,0E0,0E0,0E0,0E0,0E0,0E0,0E0],"parents":[2147483647,0,0,1,1,2,2,3,3,4,4,5,5,6,6,7,7,8,8,9,9,10,10,11,11,12,12,13,13,14,14,15,15,16,16,17,17,18,18,19,19,20,20,21,21,22,22,23,23,24,24,25,25,26,26,27,27,28,28,29,29,30,30],"right_children":[2,4,6,8,10,12,14,16,18,20,22,24,26,28,30,32,34,36,38,40,42,44,46,48,50,52,54,56,58,60,62,-1,-1,-1,-1,-1,-1,-1,-1,-1,-1,-1,-1,-1,-1,-1,-1,-1,-1,-1,-1,-1,-1,-1,-1,-1,-1,-1,-1,-1,-1,-1,-1],"split_conditions":[7.1306705E0,9.95938E2,1.0283907E3,8.8835263E-1,1.0680864E3,7.6245604E0,1.9162257E-1,8.666609E2,9.531866E2,5.8074284E0,4.4366032E-1,8.188547E1,3.4240893E-1,8.5679725E-2,4.573912E-1,3.0300496E0,3.15E1,-1.2665316E0,1.0401499E-1,2.941791E0,6.541588E0,7.8155594E1,8.4198044E1,8.0028625E1,9.089494E1,7.132967E-2,9.502088E-1,5.9722826E-2,4.4939045E-2,4.9514093E0,8.531703E1,-4.633227E-1,3.921273E-1,5.3212013E-2,-1.0769942E-1,3.216858E-2,-4.6401292E-1,-1.6898522E-1,-3.7351754E-1,-1.1805831E-1,1.1404032E-1,2.3551746E-1,-1.061485E-3,-6.693905E-2,2.7434707E-1,-1.2148348E-1,-3.891259E-1,-3.3886975E-1,1.7463231E0,-2.6470318E-1,5.270375E-1,5.7554764E-1,-4.0257478E-1,-4.827651E-1,-6.972431E-2,-4.9240133E-1,4.746222E-1,5.021261E-1,-4.9223223E-1,-2.188634E-1,5.6820935E-1,-9.0867357E-4,-3.830779E-1],"split_indices":[29,1,1,9,1,29,33,1,1,29,13,3,34,14,34,8,52,2,16,19,29,49,47,47,48,46,33,14,23,30,49,0,0,0,0,0,0,0,0,0,0,0,0,0,0,0,0,0,0,0,0,0,0,0,0,0,0,0,0,0,0,0,0],"split_type":[0,0,0,0,0,0,0,0,0,0,0,0,0,0,0,0,0,0,0,0,0,0,0,0,0,0,0,0,0,0,0,0,0,0,0,0,0,0,0,0,0,0,0,0,0,0,0,0,0,0,0,0,0,0,0,0,0,0,0,0,0,0,0],"sum_hessian":[2.0636736E4,1.8761059E4,1.8756782E3,3.9701055E3,1.4790952E4,9.5238605E2,9.232922E2,2.687051E3,1.2830544E3,1.076619E4,4.0247622E3,1.441727E2,8.082134E2,8.98867E1,8.3340546E2,1.18285934E2,2.5687651E3,3.6563763E2,9.174168E2,7.9699536E3,2.7962368E3,2.0348866E3,1.9898757E3,3.5578463E0,1.4061485E2,6.864811E0,8.013485E2,5.864264E1,3.1244064E1,3.3370038E2,4.9970505E2,1.1657875E2,1.7071834E0,8.047972E2,1.763968E3,1.730377E1,3.483339E2,6.905056E2,2.2691115E2,1.9725498E3,5.997404E3,2.1737568E3,6.224798E2,1.7251274E3,3.097592E2,1.4834556E3,5.0642014E2,1.6928918E0,1.8649545E0,1.3632841E2,4.28644E0,3.167867E0,3.6969442E0,7.920992E2,9.249337E0,1.1947449E1,4.669519E1,4.1694884E0,2.7074575E1,3.1210083E2,2.159956E1,3.0681747E1,4.6902332E2],"tree_param":{"num_deleted":"0","num_feature":"53","num_nodes":"63","size_leaf_vector":"0"}},{"base_weights":[-1.0680159E-2,1.1376166E-2,-3.6524585E-1,-1.9216895E-1,4.5409564E-2,-4.7154322E-1,-2.6994172E-1,-8.9919105E-2,-3.4544498E-1,1.79733E-2,2.1701823E-1,5.886608E-1,-4.7617483E-1,-2.0989496E-1,-4.2746085E-1,-3.6861902E-1,-3.7719958E-2,-2.3330031E-1,-4.52346E-1,4.454008E-2,-1.4223035E-1,3.7767416E-1,6.467476E-2,2.669865E-2,-4.7907898E-1,-7.898487E-2,-3.3521786E-1,2.4355122E-1,-4.4254446E-1,-4.1516295E-1,4.6833578E-1,1.83348E-2,-2.6003695E-1,-1.2194675E-1,-3.7369376E-1,3.5844195E-1,-4.5875806E-1,9.036451E-3,2.3953153E-1,3.2140443E-1,-1.714836E-1,2.6974455E-1,4.4107273E-1,2.889763E-1,-6.5670766E-2,-3.5501927E-1,6.1247027E-1,2.439852E-1,-4.8080483E-1,8.557623E-1,-1.0405394E-1,-3.4944513E-1,4.2955503E-1,6.343013E-1,-3.1377786E-1,1.17508665E-1,-4.5258248E-1],"categories":[],"categories_nodes":[],"categories_segments":[],"categories_sizes":[],"default_left":[1,1,1,1,1,1,1,1,1,1,1,0,1,1,1,1,1,1,1,1,1,1,1,1,1,1,1,1,1,0,0,0,0,0,0,0,0,0,0,0,0,0,0,0,0,0,0,0,0,0,0,0,0,0,0,0,0],"id":23,"left_children":[1,3,5,7,9,11,13,15,17,19,21,-1,23,25,27,29,31,33,35,37,39,41,43,45,47,49,51,53,55,-1,-1,-1,-1,-1,-1,-1,-1,-1,-1,-1,-1,-1,-1,-1,-1,-1,-1,-1,-1,-1,-1,-1,-1,-1,-1,-1,-1],"loss_changes":[1.6121432E2,1.3445268E2,1.2102982E1,4.3544197E1,7.828751E1,3.0761795E0,5.9531784E0,2.4268677E1,1.3228287E1,6.1027763E1,5.6070984E1,0E0,8.415222E-1,7.5944786E0,1.8826866E0,1.0447159E1,1.753812E1,8.472492E0,3.1192474E0,8.514114E1,2.7718353E1,7.5128174E0,3.44487E1,1.1577828E0,8.214264E-1,5.443648E0,2.729002E0,1.179095E0,1.0193634E0,0E0,0E0,0E0,0E0,0E0,0E0,0E0,0E0,0E0,0E0,0E0,0E0,0E0,0E0,0E0,0E0,0E0,0E0,0E0,0E0,0E0,0E0,0E0,0E0,0E0,0E0,0E0,0E0],"parents":[2147483647,0,0,1,1,2,2,3,3,4,4,5,5,6,6,7,7,8,8,9,9,10,10,12,12,13,13,14,14,15,15,16,16,17,17,18,18,19,19,20,20,21,21,22,22,23,23,24,24,25,25,26,26,27,27,28,28],"right_children":[2,4,6,8,10,12,14,16,18,20,22,-1,24,26,28,30,32,34,36,38,40,42,44,46,48,50,52,54,56,-1,-1,-1,-1,-1,-1,-1,-1,-1,-1,-1,-1,-1,-1,-1,-1,-1,-1,-1,-1,-1,-1,-1,-1,-1,-1,-1,-1],"split_conditions":[9.787665E1,9.854429E2,1.0285463E3,4.85E1,7.6115484E0,8.876255E0,7.8663075E-1,9.1656274E2,2.5686882E-2,9.324227E1,9.303613E1,5.886608E-1,3.3690244E-1,4.709677E-1,3.15E1,1.6961288E1,3.1504124E-1,7.882838E-1,5.759748E-1,8.771716E1,6.5343305E-3,8.7516266E1,4.9203688E-1,2.5082646E-2,3.9624482E-2,4.955739E1,1.7272528E3,1.0815854E2,7.3310363E-1,-4.1516295E-1,4.6833578E-1,1.83348E-2,-2.6003695E-1,-1.2194675E-1,-3.7369376E-1,3.5844195E-1,-4.5875806E-1,9.036451E-3,2.3953153E-1,3.2140443E-1,-1.714836E-1,2.6974455E-1,4.4107273E-1,2.889763E-1,-6.5670766E-2,-3.5501927E-1,6.1247027E-1,2.439852E-1,-4.8080483E-1,8.557623E-1,-1.0405394E-1,-3.4944513E-1,4.2955503E-1,6.343013E-1,-3.1377786E-1,1.17508665E-1,-4.5258248E-1],"split_indices":[49,1,1,52,29,7,10,1,17,3,47,0,13,34,52,27,25,10,9,50,17,49,31,17,33,4,1,3,32,0,0,0,0,0,0,0,0,0,0,0,0,0,0,0,0,0,0,0,0,0,0,0,0,0,0,0,0],"split_type":[0,0,0,0,0,0,0,0,0,0,0,0,0,0,0,0,0,0,0,0,0,0,0,0,0,0,0,0,0,0,0,0,0,0,0,0,0,0,0,0,0,0,0,0,0,0,0,0,0,0,0,0,0,0,0,0,0],"sum_hessian":[2.0613016E4,1.9406756E4,1.2062604E3,2.7793745E3,1.662738E4,5.683754E2,6.378849E2,1.6681469E3,1.1112277E3,1.4336423E4,2.290958E3,1.9237394E0,5.664517E2,4.635216E2,1.7436325E2,2.6219302E2,1.4059539E3,5.438663E2,5.673613E2,1.2297786E4,2.0386361E3,1.1143383E3,1.1766199E3,3.2054832E0,5.632462E2,2.275046E2,2.3601703E2,3.500328E0,1.7086293E2,2.4885774E2,1.333527E1,1.1235746E3,