//Numpy array shape [64]
//Min -1.385433912277
//Max 1.375772118568
//Number of zeros 0

#ifndef B21_H_
#define B21_H_

#ifndef __SYNTHESIS__
bn_dense_1_bias_t b21[64];
#else
bn_dense_1_bias_t b21[64] = {-0.3536254466, -0.0757011846, -0.3644868433, 0.7642956972, -0.5585317612, 1.0654810667, 0.8418731093, -0.6434556842, -0.5031444430, -0.8256914616, 1.0267329216, 0.8978937864, -0.4119401276, -1.0803018808, -0.2322660089, -0.7824799418, 0.5226740837, 0.0118952543, 0.1064435691, 0.2893212736, 0.1742016077, 0.3557779193, -0.0116522461, -0.5471045375, 0.8109411001, -1.2352806330, -0.8129017353, -0.4957552254, -0.1882576048, 0.2287524045, 1.3757721186, 0.5580954552, 0.5238464475, -0.6878484488, -0.1063674837, 0.3294877708, 1.3744753599, 0.1493159533, -0.5640278459, 0.2322888672, -0.2057010978, 0.3355860710, -1.3854339123, -0.5681739450, 0.0663996041, 0.0602243245, 0.1988668889, -0.2765800357, 0.2072955370, -0.3741318285, -0.5350217223, 1.1235746145, -0.0488307402, 0.4206327796, -1.2256982327, 0.3469305933, 0.3400419950, -0.0129619148, -1.0117645264, 0.3006994128, -1.1508685350, -0.9721458554, -0.2727356851, -0.1379321814};

#endif

#endif
