//Numpy array shape [64, 10]
//Min -0.749224007130
//Max 0.755448937416
//Number of zeros 0

#ifndef W23_H_
#define W23_H_

#ifndef __SYNTHESIS__
output_dense_weight_t w23[640];
#else
output_dense_weight_t w23[640] = {-0.5191578865, 0.2995878160, -0.3303964436, 0.0761724263, 0.3778309822, 0.4372853637, -0.5431858897, -0.2858050764, -0.5708080530, -0.2632728815, 0.7554489374, 0.0169340316, -0.0461530536, -0.1072487831, 0.0488570668, -0.3851314187, -0.1725558639, 0.6145784855, -0.5166035295, -0.3818911910, -0.5203500390, -0.1234894693, -0.4336705804, 0.2022970170, -0.3461393118, 0.3099799454, 0.3872508705, 0.7200208902, 0.3082191348, 0.1767020673, -0.0719486624, 0.3357657790, -0.3845432401, -0.3417479396, 0.0710100606, -0.3189912438, 0.1806895733, -0.5286085010, 0.3615863919, -0.1736092269, 0.0100277066, 0.4755655527, -0.6394614577, -0.3801157475, 0.3699545860, -0.2277839035, -0.3093505800, 0.0625072196, -0.2021624446, -0.2812347710, -0.0010138663, -0.2482277602, -0.1052013338, 0.4756573737, -0.0465236604, 0.2614078820, -0.0445736535, -0.4264823794, 0.3832194805, -0.2413946390, -0.4948984087, -0.2437645346, 0.1125161275, 0.1718295366, 0.1243275180, -0.2507083118, -0.5686929822, 0.1814775467, 0.3446944654, -0.2362356931, -0.3332349360, -0.3546470106, 0.1107152775, -0.3120627105, 0.4628166556, -0.1755964458, -0.1347343326, -0.1579399556, -0.4350315034, 0.2443759590, -0.4768101871, -0.2771730721, 0.5464856625, -0.3862932324, 0.4993145764, -0.1910241842, -0.1533743888, -0.0828840286, -0.4803978503, -0.4344824255, 0.1557389200, -0.1328614950, -0.0311974697, -0.2020528466, 0.2329036593, -0.2233335376, -0.0996802002, 0.6847600937, -0.3077120781, -0.0006489332, -0.4228319526, -0.4167639315, -0.3767279685, 0.2008191198, -0.1991907656, 0.4656578004, -0.0975381434, -0.6131632924, 0.2865946293, 0.3667320013, -0.6014574170, -0.4439383447, 0.3411472440, 0.4550591707, -0.0208592173, 0.0247856826, -0.4298526943, -0.0732968599, 0.3332898021, 0.4186324775, 0.5059480667, -0.3804190159, -0.0357506089, 0.0416607447, -0.4179119468, 0.3600206673, 0.5203701854, 0.5674180388, -0.2277108133, -0.1527555585, 0.5998197794, -0.2311964631, -0.3046143651, -0.2219235301, 0.0244945437, 0.3652129769, -0.1403363496, -0.3465754390, -0.4313133061, 0.4759063721, -0.3936394155, 0.4935064912, 0.3114430904, -0.0038045982, -0.3735379577, 0.2493519187, -0.2981786132, -0.0439217277, -0.1168663129, -0.1306141913, -0.3684578538, 0.1564468294, 0.1373456717, 0.6141307354, -0.0261807963, -0.5049954057, -0.3579815924, 0.6728436351, -0.3624989688, -0.5572213531, -0.2942881286, -0.3634213209, 0.2384796143, 0.1749809086, 0.4210397303, 0.4316687286, -0.1850168705, 0.0573072061, 0.2326609194, -0.4584107399, -0.2742229104, 0.2980928421, 0.4110977054, -0.3469948471, 0.2908244431, -0.0472335778, 0.0844151080, 0.0098130684, 0.3591069281, -0.5068237185, -0.2888030112, 0.2336795330, -0.3147495985, 0.4768112600, -0.2732440829, 0.2732562423, -0.4539985359, 0.4890983105, -0.6978961825, -0.1804400235, 0.5958575010, -0.3880249858, -0.1626112759, 0.1004172340, 0.4118535519, -0.5941646695, 0.3034137785, -0.0490484834, 0.4392130971, 0.3404612243, 0.2714141011, 0.2350328565, -0.6197609305, -0.1986965835, 0.2717769146, -0.2434383184, 0.7213793397, -0.3598855734, 0.0744022429, -0.3352423012, -0.0804599449, -0.5125127435, 0.4571025670, 0.2229210436, -0.5760682821, -0.4388210773, -0.4920918643, 0.1601019651, 0.4484370351, 0.1997436881, -0.0043804632, -0.1014717892, 0.2539347708, 0.6850488186, 0.2161308676, -0.2408155203, -0.1658235937, -0.5015368462, -0.4117042124, -0.1183018908, 0.2644473612, 0.0362357460, 0.4235352278, 0.0383277051, 0.1988045722, -0.1478682011, -0.2407343239, -0.7202190757, -0.3867827058, 0.1036500633, -0.4963764548, 0.3529331386, -0.4250413179, 0.5003682971, -0.5243071318, -0.1799571663, 0.0741786808, 0.4323584437, -0.0975064635, -0.2307379991, 0.4026205242, -0.3239446282, 0.3994640112, -0.2860107124, 0.4762430191, -0.2569737136, -0.2191064954, -0.3057851791, -0.0902557522, -0.2270363271, -0.4030164480, 0.1645974368, 0.2560564876, 0.5068784356, 0.0790340155, -0.5057197213, -0.2413219512, 0.2370636016, -0.4649712741, -0.5026916862, 0.0681230202, -0.0722862184, -0.3235250413, -0.2189622074, -0.4990626872, 0.5087933540, -0.1586470753, 0.4733400643, 0.0046458533, 0.3154279292, -0.4288192689, -0.2601073384, 0.2192326933, -0.4041096866, -0.0728723928, -0.5937451720, 0.3762210310, 0.4346567094, 0.3781756759, -0.0596575066, -0.2562622130, -0.4565441608, 0.4655736983, 0.3647492528, -0.1623629630, -0.2296630740, -0.2497771531, 0.3506555855, -0.3875291049, 0.0700108409, 0.2196591347, -0.1140832007, -0.5236073732, 0.1809389144, 0.1472819597, -0.6742128134, -0.4980039299, -0.2336599976, 0.6097384691, 0.1652175784, 0.3642382920, 0.3404558599, 0.0736356527, -0.2717099190, -0.0359649546, -0.2991416156, -0.4328538775, 0.4186374545, -0.1836016029, -0.2233770043, -0.2689678967, -0.3592120111, -0.2973866165, 0.1985744536, -0.5682436228, 0.1793273240, 0.0752292052, -0.2288794816, 0.3451786935, 0.4347822666, -0.4175375700, 0.2751080692, -0.2198855877, -0.1736683547, 0.6077670455, -0.2848193645, 0.4662408233, -0.1822368503, -0.2372399420, -0.4172082245, -0.0597930774, 0.4082580507, 0.0647471622, 0.0331176072, -0.2122448385, 0.0473464876, -0.3786976337, 0.3899986148, -0.2850421667, -0.2157485634, 0.2845595479, -0.1788664162, 0.5014290810, -0.0058165090, -0.4971129298, -0.1805899888, 0.3130626678, -0.3744632006, -0.3406718373, 0.4803553820, -0.0922364667, 0.0594430752, 0.1649998128, -0.2027894109, -0.1525348723, 0.4350885749, 0.1808993220, -0.4278365076, 0.4073698223, -0.3996666074, -0.1468823701, 0.2511977851, 0.3675354123, -0.3176454604, -0.0564305708, -0.0545475595, -0.4066989422, 0.0811393037, 0.0048611239, 0.4208008945, -0.3462371826, -0.0772436783, 0.3881678879, 0.1209161580, -0.3824598789, 0.6064869761, -0.4734071493, -0.6255584955, 0.2646310925, 0.4270455241, -0.3169755638, -0.2885365188, 0.2376142442, -0.1749918312, 0.4809257984, -0.0564125776, 0.5661396384, -0.3369247019, 0.4180781245, -0.4109449983, -0.5378094316, 0.4551514387, 0.4498931170, -0.2105022818, -0.2324068695, -0.2712526619, -0.0220728386, 0.5384227633, -0.2926303744, 0.0423947163, 0.4760315120, 0.4448469281, -0.4927439690, 0.4941582978, -0.1206097081, -0.4068453312, -0.3683565855, -0.3662043512, 0.0651788339, 0.4719789326, 0.4929550588, 0.1878868788, 0.0724298060, -0.1084319949, -0.4512545466, -0.1425867975, -0.4776393175, 0.1078094691, 0.2183786184, -0.5175399780, 0.2700508833, -0.2765164077, 0.4961624444, -0.2584730387, -0.1905873865, 0.4490523636, -0.4404668510, -0.3579935431, -0.3105689585, 0.6448478103, -0.0158386752, -0.2183070034, -0.3114255369, -0.6224139929, 0.4507945776, -0.2466512769, 0.4566829801, -0.3449359536, 0.4045875967, 0.3366106451, -0.5330527425, -0.0437621139, -0.1712238938, -0.3109231293, 0.5469384789, -0.1803798229, -0.6520240903, 0.0466162898, -0.1771921664, 0.4535841048, -0.0052725687, 0.3083859384, -0.3809809387, 0.2097466737, -0.0628796294, -0.4822659194, -0.3707921207, -0.3058075905, 0.0451945812, 0.1004209220, 0.4507716894, -0.2124493271, 0.3621897101, 0.1382026076, -0.1519069672, -0.7492240071, 0.0136225792, 0.1791511774, 0.1912794560, 0.3358695209, 0.4532240629, -0.1521342546, -0.1345849633, -0.4108485878, -0.6390653849, 0.4198241234, 0.5389553308, -0.4400359988, 0.5220885277, -0.1684040427, -0.6197924614, -0.1702434719, -0.2970458567, -0.2343070954, 0.2928274572, 0.5625481009, 0.4354776442, -0.3471675515, -0.2810053825, 0.2432167083, -0.5642240047, 0.2243989855, -0.1872433424, -0.2516877353, 0.5959113240, -0.1618017405, -0.4014518559, -0.1337112635, -0.2989618778, -0.1856125593, -0.4307324886, -0.2963560224, -0.3131015897, -0.0241052359, 0.2097444683, 0.0881454796, 0.5227029920, -0.2667160928, 0.4904529452, -0.5765230656, 0.2792877257, 0.4982085228, -0.2779762447, -0.4588727951, -0.1382265240, -0.1173066348, -0.1675800979, -0.1219272390, 0.5726062059, -0.1458079815, 0.5415318608, -0.3966407776, -0.5209671855, -0.3242450655, 0.2330300808, 0.0065198103, 0.5241347551, -0.3439778686, -0.5389927030, 0.5025032759, -0.3161203563, 0.4437667429, -0.3579595983, -0.2697063982, -0.1235387847, 0.2564356923, 0.5056691170, 0.2254220843, -0.6720256209, -0.2945881486, -0.4503545165, 0.3283253014, 0.2887749672, -0.2960514426, -0.3834667802, -0.1496302336, -0.1379136294, 0.0113106221, 0.2676447928, -0.3025658131, -0.1097642928, 0.3913050294, -0.2565900087, 0.2278807759, -0.5416659117, 0.4593179822, 0.3917713165, -0.7485403419, -0.3254494667, -0.6668567061, -0.5831316113, -0.0096370261, -0.3896442354, 0.2791642845, 0.1606661081, 0.5879796147, -0.2689111829, -0.4416440129, 0.1384427845, -0.0442727208, 0.1071475893, 0.3490684628, 0.4896614850, -0.2139723450, -0.0990150347, -0.2362432480, -0.3409999907, 0.3705194294, -0.2667563260, -0.0512153022, -0.6254367232, -0.1385712028, -0.1275932640, 0.5702157617, -0.0146693084, 0.3943920732, -0.0136540513, -0.3676456511, -0.4504443705, -0.2932452559, 0.4784526229, 0.2122503072, 0.3808918595, -0.4745427072, -0.4064163864, -0.2963334620, -0.4410363138, 0.3833550215, -0.3323590457, 0.1207630709, 0.0895858407, -0.3285822868, 0.5299419761, 0.2180624157, -0.4038492441, -0.0381893441, 0.5003987551, 0.3698796332, -0.3655492663, -0.1246416569, 0.4617841244, 0.4647808075, -0.3458692133, -0.3705691099, 0.3004830182, -0.4612614810, -0.0567993335, -0.1395934224, 0.0142919719, 0.3753806055, 0.3516609967, -0.1872589141, -0.3414268792, 0.2667230964, -0.2616115510, 0.1867809743, 0.5917153358, -0.4864808917, 0.0195405018, -0.6983110905};

#endif

#endif
