//Numpy array shape [32, 32]
//Min -2.000000000000
//Max 2.000000000000
//Number of zeros 513

#ifndef W13_H_
#define W13_H_

#ifndef __SYNTHESIS__
h_dense_2_weight_t w13[1024];
#else
h_dense_2_weight_t w13[1024] = {-0.312500000, -0.500000000, -0.125000000, 0.000000000, -0.187500000, -0.062500000, 0.000000000, 0.000000000, -0.062500000, -0.500000000, 0.000000000, -0.500000000, 0.000000000, -1.000000000, -1.000000000, 0.000000000, -0.343750000, 0.062500000, -0.187500000, 0.000000000, 0.000000000, 0.000000000, -0.625000000, 0.000000000, -0.312500000, -1.000000000, -0.281250000, -0.125000000, -0.562500000, -0.250000000, -0.375000000, -0.625000000, -0.015625000, 0.000000000, -0.250000000, -0.125000000, -0.125000000, -0.437500000, -0.070312500, 0.000000000, -1.000000000, -0.046875000, -0.062500000, 0.062500000, -1.000000000, -0.750000000, -0.062500000, 0.000000000, -0.281250000, 0.250000000, -0.250000000, 0.000000000, 0.000000000, -0.562500000, -0.250000000, 0.000000000, 0.000000000, -0.062500000, -0.125000000, -0.031250000, 0.187500000, 0.125000000, -0.062500000, -0.156250000, 0.000000000, 0.000000000, 0.000000000, 0.000000000, 0.000000000, 0.000000000, 0.000000000, 0.000000000, 0.000000000, 0.000000000, 0.000000000, 0.000000000, 0.000000000, 0.000000000, 0.000000000, 0.000000000, 0.000000000, 0.000000000, 0.000000000, 0.000000000, 0.000000000, 0.000000000, 0.000000000, 0.000000000, 0.000000000, 0.000000000, 0.000000000, 0.000000000, 0.000000000, 0.000000000, 0.000000000, 0.000000000, 0.187500000, -0.062500000, 0.078125000, 0.187500000, 0.062500000, 0.062500000, -0.375000000, -0.187500000, 0.000000000, -0.160156250, 0.000000000, -0.203125000, 0.000000000, 0.250000000, -0.187500000, 0.078125000, 0.250000000, 0.156250000, 0.187500000, 0.218750000, 0.187500000, 0.000000000, 0.000000000, 0.125000000, -0.031250000, -0.312500000, 0.031250000, -0.375000000, -0.312500000, -0.187500000, -0.375000000, -0.312500000, 0.125000000, -0.250000000, 0.250000000, 0.000000000, -0.093750000, 0.187500000, -1.000000000, 0.000000000, 1.000000000, 0.000000000, 0.000000000, 0.000000000, 0.000000000, -0.859375000, 0.000000000, -0.031250000, -0.156250000, 0.187500000, 0.000000000, -0.500000000, -0.281250000, 0.000000000, 0.156250000, 0.000000000, -0.125000000, 0.000000000, -0.125000000, 0.312500000, -0.500000000, -0.062500000, 0.000000000, 0.000000000, -0.187500000, -0.406250000, -0.250000000, -0.031250000, -0.031250000, -0.031250000, -0.687500000, -0.187500000, -0.500000000, -0.195312500, -0.093750000, -0.156250000, 0.000000000, 0.000000000, -0.250000000, -0.312500000, -0.031250000, 0.000000000, -0.500000000, -0.250000000, 0.000000000, -2.000000000, -0.218750000, -0.250000000, -0.312500000, -0.312500000, -0.125000000, -0.312500000, -0.125000000, -0.375000000, -0.250000000, -0.375000000, 0.375000000, 0.000000000, 0.000000000, -0.140625000, -0.375000000, 0.125000000, -0.171875000, 0.187500000, 0.000000000, 0.000000000, 0.000000000, 0.000000000, -0.250000000, -0.500000000, 0.179687500, -0.250000000, 0.000000000, 1.000000000, -0.062500000, 0.000000000, 0.000000000, -1.000000000, -0.156250000, 0.125000000, 0.000000000, 0.054687500, -0.156250000, 0.062500000, 0.187500000, -0.062500000, -0.375000000, -0.125000000, 0.093750000, 0.000000000, 0.031250000, -0.109375000, -0.250000000, -0.281250000, 0.000000000, 0.031250000, 0.000000000, -0.031250000, 0.000000000, 0.000000000, -0.062500000, 0.000000000, -0.015625000, -0.500000000, -0.171875000, -0.156250000, -0.125000000, -0.093750000, -0.062500000, 0.000000000, -0.218750000, 0.000000000, -0.218750000, 0.000000000, 0.062500000, -0.113281250, 0.000000000, 0.062500000, 0.000000000, 0.093750000, 0.000000000, 0.000000000, 0.000000000, 0.000000000, 0.000000000, 0.000000000, 0.000000000, 0.000000000, 0.000000000, 0.000000000, 0.000000000, 0.000000000, 0.000000000, 0.000000000, 0.000000000, 0.000000000, 0.000000000, 0.000000000, 0.000000000, 0.000000000, 0.000000000, 0.000000000, 0.000000000, 0.000000000, 0.000000000, 0.000000000, 0.000000000, 0.000000000, 0.000000000, 0.000000000, 0.000000000, 0.000000000, -0.187500000, 0.000000000, -0.281250000, -0.375000000, -1.000000000, -0.250000000, -0.484375000, -0.273437500, 0.000000000, -0.062500000, 0.000000000, -0.125000000, 0.000000000, -1.000000000, -0.500000000, -0.375000000, -0.250000000, -2.000000000, 0.000000000, 0.000000000, 0.000000000, 1.500000000, 0.000000000, -0.312500000, 0.000000000, -0.125000000, 0.000000000, -0.140625000, -0.437500000, -0.375000000, -0.187500000, -0.125000000, 0.000000000, 0.000000000, 0.000000000, 0.000000000, 0.000000000, 0.000000000, 0.000000000, 0.000000000, 0.000000000, 0.000000000, 0.000000000, 0.000000000, 0.000000000, 0.000000000, 0.000000000, 0.000000000, 0.000000000, 0.000000000, 0.000000000, 0.000000000, 0.000000000, 0.000000000, 0.000000000, 0.000000000, 0.000000000, 0.000000000, 0.000000000, 0.000000000, 0.000000000, 0.000000000, 0.000000000, 0.000000000, 0.000000000, 0.000000000, 0.000000000, 0.000000000, 0.000000000, 0.000000000, 0.000000000, 0.000000000, 0.000000000, 0.000000000, 0.000000000, 0.000000000, 0.000000000, 0.000000000, 0.000000000, 0.000000000, 0.000000000, 0.000000000, 0.000000000, 0.000000000, 0.000000000, 0.000000000, 0.000000000, 0.000000000, 0.000000000, 0.000000000, 0.000000000, 0.000000000, 0.000000000, 0.000000000, 0.000000000, 0.000000000, -0.250000000, -0.187500000, -0.125000000, -0.250000000, 0.000000000, -0.375000000, -0.500000000, -0.250000000, 0.000000000, -0.250000000, 0.000000000, -1.000000000, 0.000000000, 0.000000000, -0.562500000, -0.375000000, -0.375000000, -0.406250000, -0.250000000, -0.375000000, -0.375000000, -1.000000000, -0.437500000, 0.000000000, -0.031250000, -0.625000000, -0.312500000, -0.437500000, -0.468750000, -0.125000000, -1.000000000, -0.250000000, 0.000000000, 0.000000000, 0.000000000, 0.000000000, 0.000000000, 0.000000000, 0.000000000, 0.000000000, 0.000000000, 0.000000000, 0.000000000, 0.000000000, 0.000000000, 0.000000000, 0.000000000, 0.000000000, 0.000000000, 0.000000000, 0.000000000, 0.000000000, 0.000000000, 0.000000000, 0.000000000, 0.000000000, 0.000000000, 0.000000000, 0.000000000, 0.000000000, 0.000000000, 0.000000000, 0.000000000, 0.000000000, 0.437500000, 0.000000000, 0.000000000, -0.109375000, -0.218750000, -0.031250000, 0.125000000, -0.281250000, -0.250000000, -0.078125000, 0.125000000, -0.115234375, 0.000000000, -0.500000000, 0.031250000, -0.203125000, -0.125000000, 0.000000000, -0.375000000, -1.000000000, 0.000000000, 0.000000000, -0.250000000, -0.031250000, 0.000000000, 0.375000000, 0.125000000, 0.000000000, 0.076171875, 0.031250000, 0.125000000, -0.312500000, 0.000000000, -0.500000000, -0.656250000, -0.046875000, -0.312500000, -0.250000000, -0.250000000, -0.250000000, -0.750000000, -0.187500000, -0.312500000, -0.312500000, -0.500000000, -1.000000000, 0.187500000, -0.187500000, -0.437500000, -0.687500000, -0.125000000, -0.187500000, -0.375000000, -0.500000000, -0.125000000, -0.375000000, -0.312500000, -0.218750000, -0.226562500, -0.218750000, -0.343750000, -0.175781250, -0.140625000, -0.437500000, -0.375000000, -0.312500000, -0.185546875, -0.125000000, -0.046875000, 0.125000000, -0.437500000, -1.000000000, -0.062500000, -0.562500000, 0.000000000, -1.000000000, 0.000000000, -0.500000000, -0.312500000, -0.027343750, 0.062500000, 0.062500000, 0.062500000, -0.265625000, -0.062500000, 0.500000000, 0.000000000, 0.000000000, -0.093750000, -1.000000000, -0.375000000, 0.375000000, -0.250000000, -0.031250000, -0.500000000, -0.359375000, -0.062500000, 0.000000000, 0.062500000, -0.187500000, -0.500000000, 0.125000000, -0.375000000, -0.250000000, 0.000000000, -0.156250000, 0.125000000, 0.125000000, 0.000000000, 0.000000000, 0.281250000, -0.203125000, 0.000000000, 0.000000000, -0.375000000, 0.000000000, 0.000000000, 0.000000000, -0.500000000, -0.062500000, 0.000000000, 0.250000000, 0.375000000, -0.078125000, 0.375000000, 0.312500000, -0.375000000, 0.000000000, 0.000000000, 0.000000000, 0.000000000, 0.000000000, 0.000000000, 0.000000000, 0.000000000, 0.000000000, 0.000000000, 0.000000000, 0.000000000, 0.000000000, 0.000000000, 0.000000000, 0.000000000, 0.000000000, 0.000000000, 0.000000000, 0.000000000, 0.000000000, 0.000000000, 0.000000000, 0.000000000, 0.000000000, 0.000000000, 0.000000000, 0.000000000, 0.000000000, 0.000000000, 0.000000000, 0.000000000, 0.000000000, 0.000000000, 0.000000000, 0.000000000, 0.000000000, 0.000000000, 0.000000000, 0.000000000, 0.000000000, 0.000000000, 0.000000000, 0.000000000, 0.000000000, 0.000000000, 0.000000000, 0.000000000, 0.000000000, 0.000000000, 0.000000000, 0.000000000, 0.000000000, 0.000000000, 0.000000000, 0.000000000, 0.000000000, 0.000000000, 0.000000000, 0.000000000, 0.000000000, 0.000000000, 0.000000000, 0.000000000, 0.000000000, 0.062500000, 0.000000000, 0.000000000, 0.312500000, 0.000000000, -0.312500000, -0.375000000, 0.000000000, 0.000000000, 0.125000000, 0.125000000, 0.000000000, 0.000000000, 0.000000000, 0.062500000, 0.125000000, 0.000000000, 0.000000000, 0.375000000, 0.250000000, 0.000000000, 0.000000000, 0.000000000, 0.125000000, 0.000000000, -0.187500000, 0.312500000, -0.062500000, 0.156250000, 0.218750000, 0.250000000, 0.000000000, -0.500000000, 0.000000000, 0.000000000, 0.000000000, 0.000000000, 0.000000000, 0.000000000, 0.000000000, 0.000000000, -1.000000000, 0.000000000, 0.000000000, 0.000000000, 0.000000000, -1.000000000, 0.000000000, -0.500000000, 0.000000000, 0.000000000, 0.000000000, -0.500000000, -0.500000000, 0.000000000, 0.000000000, 0.000000000, 0.000000000, -0.500000000, 0.000000000, -2.000000000, 0.000000000, 0.000000000, -0.062500000, -0.187500000, 0.000000000, -0.031250000, -0.062500000, 0.000000000, 0.000000000, -0.156250000, -0.031250000, -0.500000000, 0.062500000, -0.148437500, 0.062500000, -0.250000000, -1.500000000, 0.125000000, 0.000000000, 0.125000000, 0.000000000, -0.328125000, -0.500000000, 0.000000000, -1.000000000, 0.000000000, -0.250000000, -1.000000000, -0.062500000, -0.093750000, -0.375000000, 0.023437500, -0.187500000, -0.156250000, 0.000000000, 0.000000000, 0.000000000, 0.000000000, 0.000000000, 0.000000000, 0.000000000, 0.000000000, 0.000000000, 0.000000000, 0.000000000, 0.000000000, 0.000000000, 0.000000000, 0.000000000, 0.000000000, 0.000000000, 0.000000000, 0.000000000, 0.000000000, 0.000000000, 0.000000000, 0.000000000, 0.000000000, 0.000000000, 0.000000000, 0.000000000, 0.000000000, 0.000000000, 0.000000000, 0.000000000, 0.000000000, 0.000000000, 0.000000000, 0.000000000, 0.000000000, 0.000000000, 0.000000000, 0.000000000, 0.000000000, 0.000000000, 0.000000000, 0.000000000, 0.000000000, 0.000000000, 0.000000000, 0.000000000, 0.000000000, 0.000000000, 0.500000000, -0.125000000, 0.000000000, 0.000000000, 0.000000000, 0.000000000, 0.000000000, 0.000000000, 0.000000000, 0.000000000, 0.000000000, 0.000000000, 0.000000000, 0.000000000, 0.000000000, 0.000000000, 0.031250000, 0.000000000, -0.265625000, -0.015625000, 0.062500000, -0.500000000, -0.031250000, -0.375000000, 0.000000000, -0.343750000, -0.171875000, 0.000000000, 0.000000000, 0.000000000, -0.023437500, 0.000000000, -0.187500000, -1.000000000, 0.125000000, 0.000000000, -0.625000000, 0.500000000, 0.125000000, -0.125000000, 0.000000000, -0.093750000, 0.187500000, -0.281250000, -0.312500000, -0.250000000, 0.000000000, -0.375000000, -0.031250000, -0.500000000, -0.402343750, 0.046875000, 0.031250000, -0.312500000, -0.281250000, 0.062500000, -0.500000000, -0.156250000, -0.218750000, -0.187500000, 0.000000000, -0.375000000, -0.187500000, -0.375000000, -0.031250000, -0.750000000, -0.062500000, -0.500000000, -0.312500000, -1.000000000, -0.195312500, -0.171875000, -0.437500000, 0.187500000, -0.312500000, -0.312500000, 0.062500000, -0.171875000, -0.250000000, -0.406250000, -0.242187500, 0.000000000, 0.140625000, -0.500000000, -0.437500000, -0.062500000, -0.375000000, -0.078125000, -0.250000000, 0.187500000, -0.187500000, 0.000000000, 0.000000000, 0.000000000, 0.000000000, 0.000000000, -0.500000000, 0.000000000, 0.000000000, -1.000000000, 0.000000000, 0.000000000, 0.000000000, 0.187500000, 0.000000000, -0.125000000, 0.187500000, -0.031250000, 0.109375000, 0.375000000, -0.187500000, -0.250000000, 0.250000000, 0.000000000, 0.000000000, 0.375000000, 0.000000000, -0.125000000, 0.500000000, -0.250000000, -1.000000000, -0.125000000, 0.000000000, 0.000000000, 0.000000000, 0.000000000, -0.125000000, 0.000000000, -0.375000000, 0.906250000, 0.000000000, 2.000000000, 0.000000000, 0.000000000, 0.000000000, 0.000000000, 0.000000000, 0.000000000, 0.000000000, 0.437500000, -0.140625000, 0.000000000, 0.000000000, -0.125000000, -0.125000000, 0.000000000, -0.031250000, 0.062500000, 0.062500000, 0.000000000, 0.000000000, 0.000000000, 0.000000000, -0.218750000, -0.203125000, -0.171875000, -0.250000000, 0.000000000, 0.031250000, -0.203125000, -0.187500000, 0.000000000, -0.093750000, -1.000000000, -0.750000000, 0.000000000, -0.031250000, -0.132812500, -0.500000000, 0.097656250, -0.250000000, 0.125000000, -0.125000000, -0.062500000, -0.046875000, -0.218750000, 0.312500000, 0.000000000, 0.000000000, 0.375000000, -0.312500000, -0.375000000, 0.500000000, 0.125000000, -0.312500000, -0.343750000, 0.000000000, 0.000000000, 0.000000000, -0.500000000, 0.031250000, 0.000000000, -0.156250000, 0.000000000, -0.312500000, 0.000000000, 0.000000000, 0.000000000, -0.250000000, -0.500000000, 0.000000000, -0.156250000, 0.000000000, 0.281250000, 0.125000000, 0.000000000, 0.000000000, -0.218750000, -0.062500000, 0.000000000, 0.000000000, -0.218750000, 0.062500000, 0.000000000, 0.000000000, -0.250000000, 0.000000000, -0.031250000, 0.000000000, 0.000000000, 0.000000000, -1.000000000, -0.125000000, 0.000000000, -0.062500000, 0.000000000, 0.000000000, 0.000000000, 0.000000000, 0.000000000, -0.250000000, 0.000000000, 0.000000000, 0.062500000, -0.187500000, 0.125000000, 0.125000000, 0.000000000, 0.000000000, 0.000000000};

#endif

#endif
